network unknown {
}
variable U1U2U3 {
    type discrete [ 64 ] { u31_u21_u11, u31_u21_u12, u31_u21_u13, u31_u21_u14, u31_u22_u11, u31_u22_u12, u31_u22_u13, u31_u22_u14, u31_u23_u11, u31_u23_u12, u31_u23_u13, u31_u23_u14, u31_u24_u11, u31_u24_u12, u31_u24_u13, u31_u24_u14, u32_u21_u11, u32_u21_u12, u32_u21_u13, u32_u21_u14, u32_u22_u11, u32_u22_u12, u32_u22_u13, u32_u22_u14, u32_u23_u11, u32_u23_u12, u32_u23_u13, u32_u23_u14, u32_u24_u11, u32_u24_u12, u32_u24_u13, u32_u24_u14, u33_u21_u11, u33_u21_u12, u33_u21_u13, u33_u21_u14, u33_u22_u11, u33_u22_u12, u33_u22_u13, u33_u22_u14, u33_u23_u11, u33_u23_u12, u33_u23_u13, u33_u23_u14, u33_u24_u11, u33_u24_u12, u33_u24_u13, u33_u24_u14, u34_u21_u11, u34_u21_u12, u34_u21_u13, u34_u21_u14, u34_u22_u11, u34_u22_u12, u34_u22_u13, u34_u22_u14, u34_u23_u11, u34_u23_u12, u34_u23_u13, u34_u23_u14, u34_u24_u11, u34_u24_u12, u34_u24_u13, u34_u24_u14 };
    property weight = None ;
}
variable V {
    type discrete [ 2 ] { v1, v2 };
    property weight = None ;
}
variable X {
    type discrete [ 2 ] { 0, 1 };
    property weight = None ;
}
variable Y1 {
    type discrete [ 2 ] { 0, 1 };
    property weight = None ;
}
variable Y2 {
    type discrete [ 2 ] { 0, 1 };
    property weight = None ;
}
variable Y3 {
    type discrete [ 2 ] { 0, 1 };
    property weight = None ;
}
probability ( U1U2U3 ) {
    table 0.005955682724237942, 0.0031322111176034896, 0.00955181589646788, 0.028738921872808403, 0.029575596108215717, 0.014273789935014849, 0.013966238428832618, 0.031317150930146836, 0.02194554654029957, 0.023109843316002483, 0.01594909518154615, 0.02268528414013241, 0.022688635065333092, 0.027921129170581333, 0.03140275391553458, 0.019576893957960365, 0.008249564254050335, 0.004726111907240907, 0.011252799036534264, 0.0010984937639364702, 0.01161207093021312, 0.008333470293630485, 0.005474469243598649, 0.0323924740164813, 0.015206299456624458, 0.0025799623561592634, 0.026614024013801297, 0.0004253147185124512, 0.017284204806210023, 0.014460074172284688, 0.024403147297154038, 0.018373570736618626, 0.005698062352149466, 0.011829353401065478, 0.005767618051045551, 0.023352680201049084, 0.017898878800496947, 0.026888782997840463, 0.031120359143741394, 0.010879944030829895, 0.021950766260582434, 0.02414266447472613, 0.008218328799708307, 0.009911772018098787, 0.0011122542355184064, 0.021673240009616592, 0.0036062359071736723, 0.018647193681488584, 0.0021939736638404905, 0.007545758186421027, 0.025544833171304727, 0.004543654265723015, 0.00465634391025878, 1.3082738487744913e-05, 0.022756413371814485, 0.023562745721175768, 0.021535066594749845, 0.02528451248212983, 0.02264398439302129, 0.009338511081528115, 0.012170603034594212, 0.024626756905337926, 0.026288942167783276, 0.00032004464293027354 ;
}
probability ( V ) {
    table 0.8966698801896638, 0.10333011981033628 ;
}
probability ( X | V ) {
    ( v1 ) 1.0, 0.0;
    ( v2 ) 0.0, 1.0;

}
probability ( Y1 | X, U1U2U3 ) {
    ( 0, u31_u21_u11 ) 1.0, 0.0;
    ( 0, u31_u21_u12 ) 1.0, 0.0;
    ( 0, u31_u21_u13 ) 0.0, 1.0;
    ( 0, u31_u21_u14 ) 0.0, 1.0;
    ( 0, u31_u22_u11 ) 1.0, 0.0;
    ( 0, u31_u22_u12 ) 1.0, 0.0;
    ( 0, u31_u22_u13 ) 0.0, 1.0;
    ( 0, u31_u22_u14 ) 0.0, 1.0;
    ( 0, u31_u23_u11 ) 1.0, 0.0;
    ( 0, u31_u23_u12 ) 1.0, 0.0;
    ( 0, u31_u23_u13 ) 0.0, 1.0;
    ( 0, u31_u23_u14 ) 0.0, 1.0;
    ( 0, u31_u24_u11 ) 1.0, 0.0;
    ( 0, u31_u24_u12 ) 1.0, 0.0;
    ( 0, u31_u24_u13 ) 0.0, 1.0;
    ( 0, u31_u24_u14 ) 0.0, 1.0;
    ( 0, u32_u21_u11 ) 1.0, 0.0;
    ( 0, u32_u21_u12 ) 1.0, 0.0;
    ( 0, u32_u21_u13 ) 0.0, 1.0;
    ( 0, u32_u21_u14 ) 0.0, 1.0;
    ( 0, u32_u22_u11 ) 1.0, 0.0;
    ( 0, u32_u22_u12 ) 1.0, 0.0;
    ( 0, u32_u22_u13 ) 0.0, 1.0;
    ( 0, u32_u22_u14 ) 0.0, 1.0;
    ( 0, u32_u23_u11 ) 1.0, 0.0;
    ( 0, u32_u23_u12 ) 1.0, 0.0;
    ( 0, u32_u23_u13 ) 0.0, 1.0;
    ( 0, u32_u23_u14 ) 0.0, 1.0;
    ( 0, u32_u24_u11 ) 1.0, 0.0;
    ( 0, u32_u24_u12 ) 1.0, 0.0;
    ( 0, u32_u24_u13 ) 0.0, 1.0;
    ( 0, u32_u24_u14 ) 0.0, 1.0;
    ( 0, u33_u21_u11 ) 1.0, 0.0;
    ( 0, u33_u21_u12 ) 1.0, 0.0;
    ( 0, u33_u21_u13 ) 0.0, 1.0;
    ( 0, u33_u21_u14 ) 0.0, 1.0;
    ( 0, u33_u22_u11 ) 1.0, 0.0;
    ( 0, u33_u22_u12 ) 1.0, 0.0;
    ( 0, u33_u22_u13 ) 0.0, 1.0;
    ( 0, u33_u22_u14 ) 0.0, 1.0;
    ( 0, u33_u23_u11 ) 1.0, 0.0;
    ( 0, u33_u23_u12 ) 1.0, 0.0;
    ( 0, u33_u23_u13 ) 0.0, 1.0;
    ( 0, u33_u23_u14 ) 0.0, 1.0;
    ( 0, u33_u24_u11 ) 1.0, 0.0;
    ( 0, u33_u24_u12 ) 1.0, 0.0;
    ( 0, u33_u24_u13 ) 0.0, 1.0;
    ( 0, u33_u24_u14 ) 0.0, 1.0;
    ( 0, u34_u21_u11 ) 1.0, 0.0;
    ( 0, u34_u21_u12 ) 1.0, 0.0;
    ( 0, u34_u21_u13 ) 0.0, 1.0;
    ( 0, u34_u21_u14 ) 0.0, 1.0;
    ( 0, u34_u22_u11 ) 1.0, 0.0;
    ( 0, u34_u22_u12 ) 1.0, 0.0;
    ( 0, u34_u22_u13 ) 0.0, 1.0;
    ( 0, u34_u22_u14 ) 0.0, 1.0;
    ( 0, u34_u23_u11 ) 1.0, 0.0;
    ( 0, u34_u23_u12 ) 1.0, 0.0;
    ( 0, u34_u23_u13 ) 0.0, 1.0;
    ( 0, u34_u23_u14 ) 0.0, 1.0;
    ( 0, u34_u24_u11 ) 1.0, 0.0;
    ( 0, u34_u24_u12 ) 1.0, 0.0;
    ( 0, u34_u24_u13 ) 0.0, 1.0;
    ( 0, u34_u24_u14 ) 0.0, 1.0;
    ( 1, u31_u21_u11 ) 1.0, 0.0;
    ( 1, u31_u21_u12 ) 0.0, 1.0;
    ( 1, u31_u21_u13 ) 1.0, 0.0;
    ( 1, u31_u21_u14 ) 0.0, 1.0;
    ( 1, u31_u22_u11 ) 1.0, 0.0;
    ( 1, u31_u22_u12 ) 0.0, 1.0;
    ( 1, u31_u22_u13 ) 1.0, 0.0;
    ( 1, u31_u22_u14 ) 0.0, 1.0;
    ( 1, u31_u23_u11 ) 1.0, 0.0;
    ( 1, u31_u23_u12 ) 0.0, 1.0;
    ( 1, u31_u23_u13 ) 1.0, 0.0;
    ( 1, u31_u23_u14 ) 0.0, 1.0;
    ( 1, u31_u24_u11 ) 1.0, 0.0;
    ( 1, u31_u24_u12 ) 0.0, 1.0;
    ( 1, u31_u24_u13 ) 1.0, 0.0;
    ( 1, u31_u24_u14 ) 0.0, 1.0;
    ( 1, u32_u21_u11 ) 1.0, 0.0;
    ( 1, u32_u21_u12 ) 0.0, 1.0;
    ( 1, u32_u21_u13 ) 1.0, 0.0;
    ( 1, u32_u21_u14 ) 0.0, 1.0;
    ( 1, u32_u22_u11 ) 1.0, 0.0;
    ( 1, u32_u22_u12 ) 0.0, 1.0;
    ( 1, u32_u22_u13 ) 1.0, 0.0;
    ( 1, u32_u22_u14 ) 0.0, 1.0;
    ( 1, u32_u23_u11 ) 1.0, 0.0;
    ( 1, u32_u23_u12 ) 0.0, 1.0;
    ( 1, u32_u23_u13 ) 1.0, 0.0;
    ( 1, u32_u23_u14 ) 0.0, 1.0;
    ( 1, u32_u24_u11 ) 1.0, 0.0;
    ( 1, u32_u24_u12 ) 0.0, 1.0;
    ( 1, u32_u24_u13 ) 1.0, 0.0;
    ( 1, u32_u24_u14 ) 0.0, 1.0;
    ( 1, u33_u21_u11 ) 1.0, 0.0;
    ( 1, u33_u21_u12 ) 0.0, 1.0;
    ( 1, u33_u21_u13 ) 1.0, 0.0;
    ( 1, u33_u21_u14 ) 0.0, 1.0;
    ( 1, u33_u22_u11 ) 1.0, 0.0;
    ( 1, u33_u22_u12 ) 0.0, 1.0;
    ( 1, u33_u22_u13 ) 1.0, 0.0;
    ( 1, u33_u22_u14 ) 0.0, 1.0;
    ( 1, u33_u23_u11 ) 1.0, 0.0;
    ( 1, u33_u23_u12 ) 0.0, 1.0;
    ( 1, u33_u23_u13 ) 1.0, 0.0;
    ( 1, u33_u23_u14 ) 0.0, 1.0;
    ( 1, u33_u24_u11 ) 1.0, 0.0;
    ( 1, u33_u24_u12 ) 0.0, 1.0;
    ( 1, u33_u24_u13 ) 1.0, 0.0;
    ( 1, u33_u24_u14 ) 0.0, 1.0;
    ( 1, u34_u21_u11 ) 1.0, 0.0;
    ( 1, u34_u21_u12 ) 0.0, 1.0;
    ( 1, u34_u21_u13 ) 1.0, 0.0;
    ( 1, u34_u21_u14 ) 0.0, 1.0;
    ( 1, u34_u22_u11 ) 1.0, 0.0;
    ( 1, u34_u22_u12 ) 0.0, 1.0;
    ( 1, u34_u22_u13 ) 1.0, 0.0;
    ( 1, u34_u22_u14 ) 0.0, 1.0;
    ( 1, u34_u23_u11 ) 1.0, 0.0;
    ( 1, u34_u23_u12 ) 0.0, 1.0;
    ( 1, u34_u23_u13 ) 1.0, 0.0;
    ( 1, u34_u23_u14 ) 0.0, 1.0;
    ( 1, u34_u24_u11 ) 1.0, 0.0;
    ( 1, u34_u24_u12 ) 0.0, 1.0;
    ( 1, u34_u24_u13 ) 1.0, 0.0;
    ( 1, u34_u24_u14 ) 0.0, 1.0;

}
probability ( Y2 | Y1, U1U2U3 ) {
    ( 0, u31_u21_u11 ) 1.0, 0.0;
    ( 0, u31_u21_u12 ) 1.0, 0.0;
    ( 0, u31_u21_u13 ) 1.0, 0.0;
    ( 0, u31_u21_u14 ) 1.0, 0.0;
    ( 0, u31_u22_u11 ) 1.0, 0.0;
    ( 0, u31_u22_u12 ) 1.0, 0.0;
    ( 0, u31_u22_u13 ) 1.0, 0.0;
    ( 0, u31_u22_u14 ) 1.0, 0.0;
    ( 0, u31_u23_u11 ) 0.0, 1.0;
    ( 0, u31_u23_u12 ) 0.0, 1.0;
    ( 0, u31_u23_u13 ) 0.0, 1.0;
    ( 0, u31_u23_u14 ) 0.0, 1.0;
    ( 0, u31_u24_u11 ) 0.0, 1.0;
    ( 0, u31_u24_u12 ) 0.0, 1.0;
    ( 0, u31_u24_u13 ) 0.0, 1.0;
    ( 0, u31_u24_u14 ) 0.0, 1.0;
    ( 0, u32_u21_u11 ) 1.0, 0.0;
    ( 0, u32_u21_u12 ) 1.0, 0.0;
    ( 0, u32_u21_u13 ) 1.0, 0.0;
    ( 0, u32_u21_u14 ) 1.0, 0.0;
    ( 0, u32_u22_u11 ) 1.0, 0.0;
    ( 0, u32_u22_u12 ) 1.0, 0.0;
    ( 0, u32_u22_u13 ) 1.0, 0.0;
    ( 0, u32_u22_u14 ) 1.0, 0.0;
    ( 0, u32_u23_u11 ) 0.0, 1.0;
    ( 0, u32_u23_u12 ) 0.0, 1.0;
    ( 0, u32_u23_u13 ) 0.0, 1.0;
    ( 0, u32_u23_u14 ) 0.0, 1.0;
    ( 0, u32_u24_u11 ) 0.0, 1.0;
    ( 0, u32_u24_u12 ) 0.0, 1.0;
    ( 0, u32_u24_u13 ) 0.0, 1.0;
    ( 0, u32_u24_u14 ) 0.0, 1.0;
    ( 0, u33_u21_u11 ) 1.0, 0.0;
    ( 0, u33_u21_u12 ) 1.0, 0.0;
    ( 0, u33_u21_u13 ) 1.0, 0.0;
    ( 0, u33_u21_u14 ) 1.0, 0.0;
    ( 0, u33_u22_u11 ) 1.0, 0.0;
    ( 0, u33_u22_u12 ) 1.0, 0.0;
    ( 0, u33_u22_u13 ) 1.0, 0.0;
    ( 0, u33_u22_u14 ) 1.0, 0.0;
    ( 0, u33_u23_u11 ) 0.0, 1.0;
    ( 0, u33_u23_u12 ) 0.0, 1.0;
    ( 0, u33_u23_u13 ) 0.0, 1.0;
    ( 0, u33_u23_u14 ) 0.0, 1.0;
    ( 0, u33_u24_u11 ) 0.0, 1.0;
    ( 0, u33_u24_u12 ) 0.0, 1.0;
    ( 0, u33_u24_u13 ) 0.0, 1.0;
    ( 0, u33_u24_u14 ) 0.0, 1.0;
    ( 0, u34_u21_u11 ) 1.0, 0.0;
    ( 0, u34_u21_u12 ) 1.0, 0.0;
    ( 0, u34_u21_u13 ) 1.0, 0.0;
    ( 0, u34_u21_u14 ) 1.0, 0.0;
    ( 0, u34_u22_u11 ) 1.0, 0.0;
    ( 0, u34_u22_u12 ) 1.0, 0.0;
    ( 0, u34_u22_u13 ) 1.0, 0.0;
    ( 0, u34_u22_u14 ) 1.0, 0.0;
    ( 0, u34_u23_u11 ) 0.0, 1.0;
    ( 0, u34_u23_u12 ) 0.0, 1.0;
    ( 0, u34_u23_u13 ) 0.0, 1.0;
    ( 0, u34_u23_u14 ) 0.0, 1.0;
    ( 0, u34_u24_u11 ) 0.0, 1.0;
    ( 0, u34_u24_u12 ) 0.0, 1.0;
    ( 0, u34_u24_u13 ) 0.0, 1.0;
    ( 0, u34_u24_u14 ) 0.0, 1.0;
    ( 1, u31_u21_u11 ) 1.0, 0.0;
    ( 1, u31_u21_u12 ) 1.0, 0.0;
    ( 1, u31_u21_u13 ) 1.0, 0.0;
    ( 1, u31_u21_u14 ) 1.0, 0.0;
    ( 1, u31_u22_u11 ) 0.0, 1.0;
    ( 1, u31_u22_u12 ) 0.0, 1.0;
    ( 1, u31_u22_u13 ) 0.0, 1.0;
    ( 1, u31_u22_u14 ) 0.0, 1.0;
    ( 1, u31_u23_u11 ) 1.0, 0.0;
    ( 1, u31_u23_u12 ) 1.0, 0.0;
    ( 1, u31_u23_u13 ) 1.0, 0.0;
    ( 1, u31_u23_u14 ) 1.0, 0.0;
    ( 1, u31_u24_u11 ) 0.0, 1.0;
    ( 1, u31_u24_u12 ) 0.0, 1.0;
    ( 1, u31_u24_u13 ) 0.0, 1.0;
    ( 1, u31_u24_u14 ) 0.0, 1.0;
    ( 1, u32_u21_u11 ) 1.0, 0.0;
    ( 1, u32_u21_u12 ) 1.0, 0.0;
    ( 1, u32_u21_u13 ) 1.0, 0.0;
    ( 1, u32_u21_u14 ) 1.0, 0.0;
    ( 1, u32_u22_u11 ) 0.0, 1.0;
    ( 1, u32_u22_u12 ) 0.0, 1.0;
    ( 1, u32_u22_u13 ) 0.0, 1.0;
    ( 1, u32_u22_u14 ) 0.0, 1.0;
    ( 1, u32_u23_u11 ) 1.0, 0.0;
    ( 1, u32_u23_u12 ) 1.0, 0.0;
    ( 1, u32_u23_u13 ) 1.0, 0.0;
    ( 1, u32_u23_u14 ) 1.0, 0.0;
    ( 1, u32_u24_u11 ) 0.0, 1.0;
    ( 1, u32_u24_u12 ) 0.0, 1.0;
    ( 1, u32_u24_u13 ) 0.0, 1.0;
    ( 1, u32_u24_u14 ) 0.0, 1.0;
    ( 1, u33_u21_u11 ) 1.0, 0.0;
    ( 1, u33_u21_u12 ) 1.0, 0.0;
    ( 1, u33_u21_u13 ) 1.0, 0.0;
    ( 1, u33_u21_u14 ) 1.0, 0.0;
    ( 1, u33_u22_u11 ) 0.0, 1.0;
    ( 1, u33_u22_u12 ) 0.0, 1.0;
    ( 1, u33_u22_u13 ) 0.0, 1.0;
    ( 1, u33_u22_u14 ) 0.0, 1.0;
    ( 1, u33_u23_u11 ) 1.0, 0.0;
    ( 1, u33_u23_u12 ) 1.0, 0.0;
    ( 1, u33_u23_u13 ) 1.0, 0.0;
    ( 1, u33_u23_u14 ) 1.0, 0.0;
    ( 1, u33_u24_u11 ) 0.0, 1.0;
    ( 1, u33_u24_u12 ) 0.0, 1.0;
    ( 1, u33_u24_u13 ) 0.0, 1.0;
    ( 1, u33_u24_u14 ) 0.0, 1.0;
    ( 1, u34_u21_u11 ) 1.0, 0.0;
    ( 1, u34_u21_u12 ) 1.0, 0.0;
    ( 1, u34_u21_u13 ) 1.0, 0.0;
    ( 1, u34_u21_u14 ) 1.0, 0.0;
    ( 1, u34_u22_u11 ) 0.0, 1.0;
    ( 1, u34_u22_u12 ) 0.0, 1.0;
    ( 1, u34_u22_u13 ) 0.0, 1.0;
    ( 1, u34_u22_u14 ) 0.0, 1.0;
    ( 1, u34_u23_u11 ) 1.0, 0.0;
    ( 1, u34_u23_u12 ) 1.0, 0.0;
    ( 1, u34_u23_u13 ) 1.0, 0.0;
    ( 1, u34_u23_u14 ) 1.0, 0.0;
    ( 1, u34_u24_u11 ) 0.0, 1.0;
    ( 1, u34_u24_u12 ) 0.0, 1.0;
    ( 1, u34_u24_u13 ) 0.0, 1.0;
    ( 1, u34_u24_u14 ) 0.0, 1.0;

}
probability ( Y3 | Y2, U1U2U3 ) {
    ( 0, u31_u21_u11 ) 1.0, 0.0;
    ( 0, u31_u21_u12 ) 1.0, 0.0;
    ( 0, u31_u21_u13 ) 1.0, 0.0;
    ( 0, u31_u21_u14 ) 1.0, 0.0;
    ( 0, u31_u22_u11 ) 1.0, 0.0;
    ( 0, u31_u22_u12 ) 1.0, 0.0;
    ( 0, u31_u22_u13 ) 1.0, 0.0;
    ( 0, u31_u22_u14 ) 1.0, 0.0;
    ( 0, u31_u23_u11 ) 1.0, 0.0;
    ( 0, u31_u23_u12 ) 1.0, 0.0;
    ( 0, u31_u23_u13 ) 1.0, 0.0;
    ( 0, u31_u23_u14 ) 1.0, 0.0;
    ( 0, u31_u24_u11 ) 1.0, 0.0;
    ( 0, u31_u24_u12 ) 1.0, 0.0;
    ( 0, u31_u24_u13 ) 1.0, 0.0;
    ( 0, u31_u24_u14 ) 1.0, 0.0;
    ( 0, u32_u21_u11 ) 1.0, 0.0;
    ( 0, u32_u21_u12 ) 1.0, 0.0;
    ( 0, u32_u21_u13 ) 1.0, 0.0;
    ( 0, u32_u21_u14 ) 1.0, 0.0;
    ( 0, u32_u22_u11 ) 1.0, 0.0;
    ( 0, u32_u22_u12 ) 1.0, 0.0;
    ( 0, u32_u22_u13 ) 1.0, 0.0;
    ( 0, u32_u22_u14 ) 1.0, 0.0;
    ( 0, u32_u23_u11 ) 1.0, 0.0;
    ( 0, u32_u23_u12 ) 1.0, 0.0;
    ( 0, u32_u23_u13 ) 1.0, 0.0;
    ( 0, u32_u23_u14 ) 1.0, 0.0;
    ( 0, u32_u24_u11 ) 1.0, 0.0;
    ( 0, u32_u24_u12 ) 1.0, 0.0;
    ( 0, u32_u24_u13 ) 1.0, 0.0;
    ( 0, u32_u24_u14 ) 1.0, 0.0;
    ( 0, u33_u21_u11 ) 0.0, 1.0;
    ( 0, u33_u21_u12 ) 0.0, 1.0;
    ( 0, u33_u21_u13 ) 0.0, 1.0;
    ( 0, u33_u21_u14 ) 0.0, 1.0;
    ( 0, u33_u22_u11 ) 0.0, 1.0;
    ( 0, u33_u22_u12 ) 0.0, 1.0;
    ( 0, u33_u22_u13 ) 0.0, 1.0;
    ( 0, u33_u22_u14 ) 0.0, 1.0;
    ( 0, u33_u23_u11 ) 0.0, 1.0;
    ( 0, u33_u23_u12 ) 0.0, 1.0;
    ( 0, u33_u23_u13 ) 0.0, 1.0;
    ( 0, u33_u23_u14 ) 0.0, 1.0;
    ( 0, u33_u24_u11 ) 0.0, 1.0;
    ( 0, u33_u24_u12 ) 0.0, 1.0;
    ( 0, u33_u24_u13 ) 0.0, 1.0;
    ( 0, u33_u24_u14 ) 0.0, 1.0;
    ( 0, u34_u21_u11 ) 0.0, 1.0;
    ( 0, u34_u21_u12 ) 0.0, 1.0;
    ( 0, u34_u21_u13 ) 0.0, 1.0;
    ( 0, u34_u21_u14 ) 0.0, 1.0;
    ( 0, u34_u22_u11 ) 0.0, 1.0;
    ( 0, u34_u22_u12 ) 0.0, 1.0;
    ( 0, u34_u22_u13 ) 0.0, 1.0;
    ( 0, u34_u22_u14 ) 0.0, 1.0;
    ( 0, u34_u23_u11 ) 0.0, 1.0;
    ( 0, u34_u23_u12 ) 0.0, 1.0;
    ( 0, u34_u23_u13 ) 0.0, 1.0;
    ( 0, u34_u23_u14 ) 0.0, 1.0;
    ( 0, u34_u24_u11 ) 0.0, 1.0;
    ( 0, u34_u24_u12 ) 0.0, 1.0;
    ( 0, u34_u24_u13 ) 0.0, 1.0;
    ( 0, u34_u24_u14 ) 0.0, 1.0;
    ( 1, u31_u21_u11 ) 1.0, 0.0;
    ( 1, u31_u21_u12 ) 1.0, 0.0;
    ( 1, u31_u21_u13 ) 1.0, 0.0;
    ( 1, u31_u21_u14 ) 1.0, 0.0;
    ( 1, u31_u22_u11 ) 1.0, 0.0;
    ( 1, u31_u22_u12 ) 1.0, 0.0;
    ( 1, u31_u22_u13 ) 1.0, 0.0;
    ( 1, u31_u22_u14 ) 1.0, 0.0;
    ( 1, u31_u23_u11 ) 1.0, 0.0;
    ( 1, u31_u23_u12 ) 1.0, 0.0;
    ( 1, u31_u23_u13 ) 1.0, 0.0;
    ( 1, u31_u23_u14 ) 1.0, 0.0;
    ( 1, u31_u24_u11 ) 1.0, 0.0;
    ( 1, u31_u24_u12 ) 1.0, 0.0;
    ( 1, u31_u24_u13 ) 1.0, 0.0;
    ( 1, u31_u24_u14 ) 1.0, 0.0;
    ( 1, u32_u21_u11 ) 0.0, 1.0;
    ( 1, u32_u21_u12 ) 0.0, 1.0;
    ( 1, u32_u21_u13 ) 0.0, 1.0;
    ( 1, u32_u21_u14 ) 0.0, 1.0;
    ( 1, u32_u22_u11 ) 0.0, 1.0;
    ( 1, u32_u22_u12 ) 0.0, 1.0;
    ( 1, u32_u22_u13 ) 0.0, 1.0;
    ( 1, u32_u22_u14 ) 0.0, 1.0;
    ( 1, u32_u23_u11 ) 0.0, 1.0;
    ( 1, u32_u23_u12 ) 0.0, 1.0;
    ( 1, u32_u23_u13 ) 0.0, 1.0;
    ( 1, u32_u23_u14 ) 0.0, 1.0;
    ( 1, u32_u24_u11 ) 0.0, 1.0;
    ( 1, u32_u24_u12 ) 0.0, 1.0;
    ( 1, u32_u24_u13 ) 0.0, 1.0;
    ( 1, u32_u24_u14 ) 0.0, 1.0;
    ( 1, u33_u21_u11 ) 1.0, 0.0;
    ( 1, u33_u21_u12 ) 1.0, 0.0;
    ( 1, u33_u21_u13 ) 1.0, 0.0;
    ( 1, u33_u21_u14 ) 1.0, 0.0;
    ( 1, u33_u22_u11 ) 1.0, 0.0;
    ( 1, u33_u22_u12 ) 1.0, 0.0;
    ( 1, u33_u22_u13 ) 1.0, 0.0;
    ( 1, u33_u22_u14 ) 1.0, 0.0;
    ( 1, u33_u23_u11 ) 1.0, 0.0;
    ( 1, u33_u23_u12 ) 1.0, 0.0;
    ( 1, u33_u23_u13 ) 1.0, 0.0;
    ( 1, u33_u23_u14 ) 1.0, 0.0;
    ( 1, u33_u24_u11 ) 1.0, 0.0;
    ( 1, u33_u24_u12 ) 1.0, 0.0;
    ( 1, u33_u24_u13 ) 1.0, 0.0;
    ( 1, u33_u24_u14 ) 1.0, 0.0;
    ( 1, u34_u21_u11 ) 0.0, 1.0;
    ( 1, u34_u21_u12 ) 0.0, 1.0;
    ( 1, u34_u21_u13 ) 0.0, 1.0;
    ( 1, u34_u21_u14 ) 0.0, 1.0;
    ( 1, u34_u22_u11 ) 0.0, 1.0;
    ( 1, u34_u22_u12 ) 0.0, 1.0;
    ( 1, u34_u22_u13 ) 0.0, 1.0;
    ( 1, u34_u22_u14 ) 0.0, 1.0;
    ( 1, u34_u23_u11 ) 0.0, 1.0;
    ( 1, u34_u23_u12 ) 0.0, 1.0;
    ( 1, u34_u23_u13 ) 0.0, 1.0;
    ( 1, u34_u23_u14 ) 0.0, 1.0;
    ( 1, u34_u24_u11 ) 0.0, 1.0;
    ( 1, u34_u24_u12 ) 0.0, 1.0;
    ( 1, u34_u24_u13 ) 0.0, 1.0;
    ( 1, u34_u24_u14 ) 0.0, 1.0;

}
