network unknown {
}
variable U1U2U3U4 {
    type discrete [ 256 ] { u41_u31_u21_u11, u41_u31_u21_u12, u41_u31_u21_u13, u41_u31_u21_u14, u41_u31_u22_u11, u41_u31_u22_u12, u41_u31_u22_u13, u41_u31_u22_u14, u41_u31_u23_u11, u41_u31_u23_u12, u41_u31_u23_u13, u41_u31_u23_u14, u41_u31_u24_u11, u41_u31_u24_u12, u41_u31_u24_u13, u41_u31_u24_u14, u41_u32_u21_u11, u41_u32_u21_u12, u41_u32_u21_u13, u41_u32_u21_u14, u41_u32_u22_u11, u41_u32_u22_u12, u41_u32_u22_u13, u41_u32_u22_u14, u41_u32_u23_u11, u41_u32_u23_u12, u41_u32_u23_u13, u41_u32_u23_u14, u41_u32_u24_u11, u41_u32_u24_u12, u41_u32_u24_u13, u41_u32_u24_u14, u41_u33_u21_u11, u41_u33_u21_u12, u41_u33_u21_u13, u41_u33_u21_u14, u41_u33_u22_u11, u41_u33_u22_u12, u41_u33_u22_u13, u41_u33_u22_u14, u41_u33_u23_u11, u41_u33_u23_u12, u41_u33_u23_u13, u41_u33_u23_u14, u41_u33_u24_u11, u41_u33_u24_u12, u41_u33_u24_u13, u41_u33_u24_u14, u41_u34_u21_u11, u41_u34_u21_u12, u41_u34_u21_u13, u41_u34_u21_u14, u41_u34_u22_u11, u41_u34_u22_u12, u41_u34_u22_u13, u41_u34_u22_u14, u41_u34_u23_u11, u41_u34_u23_u12, u41_u34_u23_u13, u41_u34_u23_u14, u41_u34_u24_u11, u41_u34_u24_u12, u41_u34_u24_u13, u41_u34_u24_u14, u42_u31_u21_u11, u42_u31_u21_u12, u42_u31_u21_u13, u42_u31_u21_u14, u42_u31_u22_u11, u42_u31_u22_u12, u42_u31_u22_u13, u42_u31_u22_u14, u42_u31_u23_u11, u42_u31_u23_u12, u42_u31_u23_u13, u42_u31_u23_u14, u42_u31_u24_u11, u42_u31_u24_u12, u42_u31_u24_u13, u42_u31_u24_u14, u42_u32_u21_u11, u42_u32_u21_u12, u42_u32_u21_u13, u42_u32_u21_u14, u42_u32_u22_u11, u42_u32_u22_u12, u42_u32_u22_u13, u42_u32_u22_u14, u42_u32_u23_u11, u42_u32_u23_u12, u42_u32_u23_u13, u42_u32_u23_u14, u42_u32_u24_u11, u42_u32_u24_u12, u42_u32_u24_u13, u42_u32_u24_u14, u42_u33_u21_u11, u42_u33_u21_u12, u42_u33_u21_u13, u42_u33_u21_u14, u42_u33_u22_u11, u42_u33_u22_u12, u42_u33_u22_u13, u42_u33_u22_u14, u42_u33_u23_u11, u42_u33_u23_u12, u42_u33_u23_u13, u42_u33_u23_u14, u42_u33_u24_u11, u42_u33_u24_u12, u42_u33_u24_u13, u42_u33_u24_u14, u42_u34_u21_u11, u42_u34_u21_u12, u42_u34_u21_u13, u42_u34_u21_u14, u42_u34_u22_u11, u42_u34_u22_u12, u42_u34_u22_u13, u42_u34_u22_u14, u42_u34_u23_u11, u42_u34_u23_u12, u42_u34_u23_u13, u42_u34_u23_u14, u42_u34_u24_u11, u42_u34_u24_u12, u42_u34_u24_u13, u42_u34_u24_u14, u43_u31_u21_u11, u43_u31_u21_u12, u43_u31_u21_u13, u43_u31_u21_u14, u43_u31_u22_u11, u43_u31_u22_u12, u43_u31_u22_u13, u43_u31_u22_u14, u43_u31_u23_u11, u43_u31_u23_u12, u43_u31_u23_u13, u43_u31_u23_u14, u43_u31_u24_u11, u43_u31_u24_u12, u43_u31_u24_u13, u43_u31_u24_u14, u43_u32_u21_u11, u43_u32_u21_u12, u43_u32_u21_u13, u43_u32_u21_u14, u43_u32_u22_u11, u43_u32_u22_u12, u43_u32_u22_u13, u43_u32_u22_u14, u43_u32_u23_u11, u43_u32_u23_u12, u43_u32_u23_u13, u43_u32_u23_u14, u43_u32_u24_u11, u43_u32_u24_u12, u43_u32_u24_u13, u43_u32_u24_u14, u43_u33_u21_u11, u43_u33_u21_u12, u43_u33_u21_u13, u43_u33_u21_u14, u43_u33_u22_u11, u43_u33_u22_u12, u43_u33_u22_u13, u43_u33_u22_u14, u43_u33_u23_u11, u43_u33_u23_u12, u43_u33_u23_u13, u43_u33_u23_u14, u43_u33_u24_u11, u43_u33_u24_u12, u43_u33_u24_u13, u43_u33_u24_u14, u43_u34_u21_u11, u43_u34_u21_u12, u43_u34_u21_u13, u43_u34_u21_u14, u43_u34_u22_u11, u43_u34_u22_u12, u43_u34_u22_u13, u43_u34_u22_u14, u43_u34_u23_u11, u43_u34_u23_u12, u43_u34_u23_u13, u43_u34_u23_u14, u43_u34_u24_u11, u43_u34_u24_u12, u43_u34_u24_u13, u43_u34_u24_u14, u44_u31_u21_u11, u44_u31_u21_u12, u44_u31_u21_u13, u44_u31_u21_u14, u44_u31_u22_u11, u44_u31_u22_u12, u44_u31_u22_u13, u44_u31_u22_u14, u44_u31_u23_u11, u44_u31_u23_u12, u44_u31_u23_u13, u44_u31_u23_u14, u44_u31_u24_u11, u44_u31_u24_u12, u44_u31_u24_u13, u44_u31_u24_u14, u44_u32_u21_u11, u44_u32_u21_u12, u44_u32_u21_u13, u44_u32_u21_u14, u44_u32_u22_u11, u44_u32_u22_u12, u44_u32_u22_u13, u44_u32_u22_u14, u44_u32_u23_u11, u44_u32_u23_u12, u44_u32_u23_u13, u44_u32_u23_u14, u44_u32_u24_u11, u44_u32_u24_u12, u44_u32_u24_u13, u44_u32_u24_u14, u44_u33_u21_u11, u44_u33_u21_u12, u44_u33_u21_u13, u44_u33_u21_u14, u44_u33_u22_u11, u44_u33_u22_u12, u44_u33_u22_u13, u44_u33_u22_u14, u44_u33_u23_u11, u44_u33_u23_u12, u44_u33_u23_u13, u44_u33_u23_u14, u44_u33_u24_u11, u44_u33_u24_u12, u44_u33_u24_u13, u44_u33_u24_u14, u44_u34_u21_u11, u44_u34_u21_u12, u44_u34_u21_u13, u44_u34_u21_u14, u44_u34_u22_u11, u44_u34_u22_u12, u44_u34_u22_u13, u44_u34_u22_u14, u44_u34_u23_u11, u44_u34_u23_u12, u44_u34_u23_u13, u44_u34_u23_u14, u44_u34_u24_u11, u44_u34_u24_u12, u44_u34_u24_u13, u44_u34_u24_u14 };
    property weight = None ;
}
variable V {
    type discrete [ 2 ] { v1, v2 };
    property weight = None ;
}
variable X {
    type discrete [ 2 ] { 0, 1 };
    property weight = None ;
}
variable Y1 {
    type discrete [ 2 ] { 0, 1 };
    property weight = None ;
}
variable Y2 {
    type discrete [ 2 ] { 0, 1 };
    property weight = None ;
}
variable Y3 {
    type discrete [ 2 ] { 0, 1 };
    property weight = None ;
}
variable Y4 {
    type discrete [ 2 ] { 0, 1 };
    property weight = None ;
}
probability ( U1U2U3U4 ) {
    table 0.0020534443047764976, 0.003075051569603038, 0.006466528136843272, 0.00646671294346709, 0.0072168997045872416, 0.0010253493266496384, 0.003056229821567536, 0.0022367281791479464, 0.007504215411365145, 0.00023054867910618382, 0.0012838131619011509, 0.006035004500288997, 0.006268801805280981, 0.006256699456277429, 0.005330848911980327, 0.0036412841017187518, 0.0043523988754329826, 0.0054305544258544235, 0.002973956887895946, 0.006593139882777737, 0.005423539862849183, 0.004854892732544272, 0.004167555019672497, 0.001645967265024217, 0.006132045391428273, 0.003721902902635859, 0.0031228920269076557, 0.007306032492535001, 0.0030069648208329307, 0.006355388104567517, 0.0071635115064945095, 0.00039163555901782204, 0.00026332503983970154, 0.0014680465693557593, 0.005328002303239365, 0.006913575279073515, 0.00241938520990014, 0.004289513755934427, 0.006726883707982652, 0.003867920396494232, 0.007398449890813498, 0.0006947809507340149, 0.005679177685971233, 0.002585731449005687, 0.005273623217316844, 0.0036772063857565362, 0.0034730752042973134, 0.006245590070531754, 0.00023304052645919734, 0.0017229171098638249, 0.0004635550207993501, 0.0008058257329788577, 0.003080863186606965, 0.0005985943311594698, 0.0069839088454688265, 0.006160324969021044, 0.007315403984498828, 0.005169273408456758, 0.004683913290438769, 0.0055828744730123695, 0.0013122016301823044, 0.004928512537347141, 0.005509431189069305, 0.0035038317041694443, 0.006582180528007556, 0.0015155533650376945, 0.007090730422062231, 0.00010047140552655905, 0.0017450451849179078, 0.006139386293658011, 0.007619622327274802, 0.0014139220632257221, 0.0022460392195297846, 0.0020763287635457255, 0.0017525111451052826, 0.007094607298152804, 0.004915392230099087, 0.006774151512340966, 0.001048892298850052, 0.0028862642930267456, 0.005126614112633901, 0.007174952631136096, 0.005279206884075982, 0.005170399779460437, 0.002071739187133355, 0.0027770101589670044, 0.0008641683437059668, 0.004043853573300879, 0.006745609385808229, 0.0021970990600800227, 0.0018328487902663482, 0.00336146446134642, 0.0017548339881117705, 0.003878503929067376, 0.0036567888053959047, 0.00438614202796336, 0.0074671727842927065, 0.006835275593635235, 0.007421124118861238, 0.0027857988558640406, 0.0052533581340617665, 0.0037652981512752803, 0.0007082194297015018, 0.005751872204026556, 0.004517606194705697, 0.001872950655520805, 0.005908896334686685, 0.007072117549009243, 0.005441876365957724, 0.006426665808591498, 0.0005386518363998089, 0.0014701686836827313, 0.0028088356413809015, 0.000984860270705611, 0.0015042512780678169, 0.006232445233531789, 0.0008232056922197849, 0.0035295286091024313, 0.001475380517065598, 0.0007961414373651353, 0.005225411282348335, 0.006818722007543093, 0.005915508604961487, 0.004389461404892562, 0.0013943585641146418, 0.0010670728586312838, 0.00760866566119265, 0.003748621101735192, 0.004463757519868266, 0.005960157382692235, 0.0067435320720004325, 0.00507514778973552, 0.00043742199020122875, 0.005185573393842611, 0.0036869937338908066, 0.0022754486656199166, 0.004875826977773159, 0.0002162037750972133, 0.0002877262881714769, 0.005732793481441291, 0.003852047969627162, 0.0053566231403703625, 0.005479503798358014, 0.007379307117822844, 0.0029914916856335367, 0.0038104397128140653, 0.0072675057025561205, 0.005526962038676615, 0.0007028605819161626, 0.0058264253998545025, 0.006551757698155571, 0.003911778445656097, 0.00010994525079720724, 0.005807321284337711, 0.002512075277209958, 0.0018264543965241845, 0.005841169614019006, 0.00208238796856454, 0.004844002909022803, 0.0028172478755529484, 0.00280787058842635, 0.0035568629961676137, 0.006970138299501278, 0.0012619011477911937, 0.005204137237423857, 0.006232840194549032, 0.007349516036642466, 0.0031345506199819545, 0.0024704800679021246, 0.007534837591301584, 0.003738310012347683, 0.005926537093510921, 0.0027186620990512314, 0.0063259486209037135, 0.0023680141628299994, 0.0046987923294395245, 0.00048477055022492105, 0.006608256235708439, 0.005048705084529405, 0.006792505964775777, 0.0005769924072029461, 0.0009398175844322977, 0.005685601096777283, 0.0026051792594663638, 0.0014004311491058834, 0.0034080213199791064, 0.0036037854802898612, 0.0058088765080612165, 0.006948585300844496, 0.0007875259159365227, 0.0007629901158153737, 0.0028111518377052338, 0.005064309069621383, 0.004986312255950247, 0.002099709067338523, 0.0007883342344882333, 0.0008651361860692878, 0.0016865786906302598, 0.002742729334041513, 0.007017257690234382, 0.006423544131674503, 0.0007772709513376375, 0.003015513945579675, 0.0075914652275579616, 0.006884464311933519, 0.002578226703017994, 0.007623150902121189, 0.006429831993642454, 0.003457571207256721, 0.002360678172159138, 0.00266664930765503, 0.0059435961235160635, 0.0022052633538020175, 0.005844145941434639, 0.0051687419201567435, 0.0019423657207254823, 0.0026844890481030406, 0.0011552400386280887, 0.002623346879121693, 0.0033075903055817977, 0.006944202675332806, 0.0048445187843258975, 0.005629969797867152, 0.0057925002578219096, 0.00020679130541768556, 0.004650044216395899, 0.0008271319982497102, 0.0028261909182849478, 0.0015721419246814846, 0.0038107609785877922, 0.0032417338412390976, 0.003888295132004755, 0.0061659938383638365, 0.00212655313492193, 0.005510673550313533, 0.007475625124051589, 0.0027163673081696555, 0.006304922359792033, 0.0004562023026091483, 0.0003529961292905276, 0.0006523032882804209, 0.00482580147111213, 0.007543504864250173, 0.0005492183288963136, 0.0043812144096849436, 0.00025548852286889207, 0.00027874127681525414, 0.0011262316179216519, 0.005405884904620085, 0.004711339645568662, 0.0011405807619791768, 0.005233697430984723, 0.00636329044544557, 0.0033957587736640335, 0.0004891778054302682, 0.0023289991541918555 ;
}
probability ( V ) {
    table 0.9269566256749793, 0.07304337432502071 ;
}
probability ( X | V ) {
    ( v1 ) 1.0, 0.0;
    ( v2 ) 0.0, 1.0;

}
probability ( Y1 | X, U1U2U3U4 ) {
    ( 0, u41_u31_u21_u11 ) 1.0, 0.0;
    ( 0, u41_u31_u21_u12 ) 1.0, 0.0;
    ( 0, u41_u31_u21_u13 ) 0.0, 1.0;
    ( 0, u41_u31_u21_u14 ) 0.0, 1.0;
    ( 0, u41_u31_u22_u11 ) 1.0, 0.0;
    ( 0, u41_u31_u22_u12 ) 1.0, 0.0;
    ( 0, u41_u31_u22_u13 ) 0.0, 1.0;
    ( 0, u41_u31_u22_u14 ) 0.0, 1.0;
    ( 0, u41_u31_u23_u11 ) 1.0, 0.0;
    ( 0, u41_u31_u23_u12 ) 1.0, 0.0;
    ( 0, u41_u31_u23_u13 ) 0.0, 1.0;
    ( 0, u41_u31_u23_u14 ) 0.0, 1.0;
    ( 0, u41_u31_u24_u11 ) 1.0, 0.0;
    ( 0, u41_u31_u24_u12 ) 1.0, 0.0;
    ( 0, u41_u31_u24_u13 ) 0.0, 1.0;
    ( 0, u41_u31_u24_u14 ) 0.0, 1.0;
    ( 0, u41_u32_u21_u11 ) 1.0, 0.0;
    ( 0, u41_u32_u21_u12 ) 1.0, 0.0;
    ( 0, u41_u32_u21_u13 ) 0.0, 1.0;
    ( 0, u41_u32_u21_u14 ) 0.0, 1.0;
    ( 0, u41_u32_u22_u11 ) 1.0, 0.0;
    ( 0, u41_u32_u22_u12 ) 1.0, 0.0;
    ( 0, u41_u32_u22_u13 ) 0.0, 1.0;
    ( 0, u41_u32_u22_u14 ) 0.0, 1.0;
    ( 0, u41_u32_u23_u11 ) 1.0, 0.0;
    ( 0, u41_u32_u23_u12 ) 1.0, 0.0;
    ( 0, u41_u32_u23_u13 ) 0.0, 1.0;
    ( 0, u41_u32_u23_u14 ) 0.0, 1.0;
    ( 0, u41_u32_u24_u11 ) 1.0, 0.0;
    ( 0, u41_u32_u24_u12 ) 1.0, 0.0;
    ( 0, u41_u32_u24_u13 ) 0.0, 1.0;
    ( 0, u41_u32_u24_u14 ) 0.0, 1.0;
    ( 0, u41_u33_u21_u11 ) 1.0, 0.0;
    ( 0, u41_u33_u21_u12 ) 1.0, 0.0;
    ( 0, u41_u33_u21_u13 ) 0.0, 1.0;
    ( 0, u41_u33_u21_u14 ) 0.0, 1.0;
    ( 0, u41_u33_u22_u11 ) 1.0, 0.0;
    ( 0, u41_u33_u22_u12 ) 1.0, 0.0;
    ( 0, u41_u33_u22_u13 ) 0.0, 1.0;
    ( 0, u41_u33_u22_u14 ) 0.0, 1.0;
    ( 0, u41_u33_u23_u11 ) 1.0, 0.0;
    ( 0, u41_u33_u23_u12 ) 1.0, 0.0;
    ( 0, u41_u33_u23_u13 ) 0.0, 1.0;
    ( 0, u41_u33_u23_u14 ) 0.0, 1.0;
    ( 0, u41_u33_u24_u11 ) 1.0, 0.0;
    ( 0, u41_u33_u24_u12 ) 1.0, 0.0;
    ( 0, u41_u33_u24_u13 ) 0.0, 1.0;
    ( 0, u41_u33_u24_u14 ) 0.0, 1.0;
    ( 0, u41_u34_u21_u11 ) 1.0, 0.0;
    ( 0, u41_u34_u21_u12 ) 1.0, 0.0;
    ( 0, u41_u34_u21_u13 ) 0.0, 1.0;
    ( 0, u41_u34_u21_u14 ) 0.0, 1.0;
    ( 0, u41_u34_u22_u11 ) 1.0, 0.0;
    ( 0, u41_u34_u22_u12 ) 1.0, 0.0;
    ( 0, u41_u34_u22_u13 ) 0.0, 1.0;
    ( 0, u41_u34_u22_u14 ) 0.0, 1.0;
    ( 0, u41_u34_u23_u11 ) 1.0, 0.0;
    ( 0, u41_u34_u23_u12 ) 1.0, 0.0;
    ( 0, u41_u34_u23_u13 ) 0.0, 1.0;
    ( 0, u41_u34_u23_u14 ) 0.0, 1.0;
    ( 0, u41_u34_u24_u11 ) 1.0, 0.0;
    ( 0, u41_u34_u24_u12 ) 1.0, 0.0;
    ( 0, u41_u34_u24_u13 ) 0.0, 1.0;
    ( 0, u41_u34_u24_u14 ) 0.0, 1.0;
    ( 0, u42_u31_u21_u11 ) 1.0, 0.0;
    ( 0, u42_u31_u21_u12 ) 1.0, 0.0;
    ( 0, u42_u31_u21_u13 ) 0.0, 1.0;
    ( 0, u42_u31_u21_u14 ) 0.0, 1.0;
    ( 0, u42_u31_u22_u11 ) 1.0, 0.0;
    ( 0, u42_u31_u22_u12 ) 1.0, 0.0;
    ( 0, u42_u31_u22_u13 ) 0.0, 1.0;
    ( 0, u42_u31_u22_u14 ) 0.0, 1.0;
    ( 0, u42_u31_u23_u11 ) 1.0, 0.0;
    ( 0, u42_u31_u23_u12 ) 1.0, 0.0;
    ( 0, u42_u31_u23_u13 ) 0.0, 1.0;
    ( 0, u42_u31_u23_u14 ) 0.0, 1.0;
    ( 0, u42_u31_u24_u11 ) 1.0, 0.0;
    ( 0, u42_u31_u24_u12 ) 1.0, 0.0;
    ( 0, u42_u31_u24_u13 ) 0.0, 1.0;
    ( 0, u42_u31_u24_u14 ) 0.0, 1.0;
    ( 0, u42_u32_u21_u11 ) 1.0, 0.0;
    ( 0, u42_u32_u21_u12 ) 1.0, 0.0;
    ( 0, u42_u32_u21_u13 ) 0.0, 1.0;
    ( 0, u42_u32_u21_u14 ) 0.0, 1.0;
    ( 0, u42_u32_u22_u11 ) 1.0, 0.0;
    ( 0, u42_u32_u22_u12 ) 1.0, 0.0;
    ( 0, u42_u32_u22_u13 ) 0.0, 1.0;
    ( 0, u42_u32_u22_u14 ) 0.0, 1.0;
    ( 0, u42_u32_u23_u11 ) 1.0, 0.0;
    ( 0, u42_u32_u23_u12 ) 1.0, 0.0;
    ( 0, u42_u32_u23_u13 ) 0.0, 1.0;
    ( 0, u42_u32_u23_u14 ) 0.0, 1.0;
    ( 0, u42_u32_u24_u11 ) 1.0, 0.0;
    ( 0, u42_u32_u24_u12 ) 1.0, 0.0;
    ( 0, u42_u32_u24_u13 ) 0.0, 1.0;
    ( 0, u42_u32_u24_u14 ) 0.0, 1.0;
    ( 0, u42_u33_u21_u11 ) 1.0, 0.0;
    ( 0, u42_u33_u21_u12 ) 1.0, 0.0;
    ( 0, u42_u33_u21_u13 ) 0.0, 1.0;
    ( 0, u42_u33_u21_u14 ) 0.0, 1.0;
    ( 0, u42_u33_u22_u11 ) 1.0, 0.0;
    ( 0, u42_u33_u22_u12 ) 1.0, 0.0;
    ( 0, u42_u33_u22_u13 ) 0.0, 1.0;
    ( 0, u42_u33_u22_u14 ) 0.0, 1.0;
    ( 0, u42_u33_u23_u11 ) 1.0, 0.0;
    ( 0, u42_u33_u23_u12 ) 1.0, 0.0;
    ( 0, u42_u33_u23_u13 ) 0.0, 1.0;
    ( 0, u42_u33_u23_u14 ) 0.0, 1.0;
    ( 0, u42_u33_u24_u11 ) 1.0, 0.0;
    ( 0, u42_u33_u24_u12 ) 1.0, 0.0;
    ( 0, u42_u33_u24_u13 ) 0.0, 1.0;
    ( 0, u42_u33_u24_u14 ) 0.0, 1.0;
    ( 0, u42_u34_u21_u11 ) 1.0, 0.0;
    ( 0, u42_u34_u21_u12 ) 1.0, 0.0;
    ( 0, u42_u34_u21_u13 ) 0.0, 1.0;
    ( 0, u42_u34_u21_u14 ) 0.0, 1.0;
    ( 0, u42_u34_u22_u11 ) 1.0, 0.0;
    ( 0, u42_u34_u22_u12 ) 1.0, 0.0;
    ( 0, u42_u34_u22_u13 ) 0.0, 1.0;
    ( 0, u42_u34_u22_u14 ) 0.0, 1.0;
    ( 0, u42_u34_u23_u11 ) 1.0, 0.0;
    ( 0, u42_u34_u23_u12 ) 1.0, 0.0;
    ( 0, u42_u34_u23_u13 ) 0.0, 1.0;
    ( 0, u42_u34_u23_u14 ) 0.0, 1.0;
    ( 0, u42_u34_u24_u11 ) 1.0, 0.0;
    ( 0, u42_u34_u24_u12 ) 1.0, 0.0;
    ( 0, u42_u34_u24_u13 ) 0.0, 1.0;
    ( 0, u42_u34_u24_u14 ) 0.0, 1.0;
    ( 0, u43_u31_u21_u11 ) 1.0, 0.0;
    ( 0, u43_u31_u21_u12 ) 1.0, 0.0;
    ( 0, u43_u31_u21_u13 ) 0.0, 1.0;
    ( 0, u43_u31_u21_u14 ) 0.0, 1.0;
    ( 0, u43_u31_u22_u11 ) 1.0, 0.0;
    ( 0, u43_u31_u22_u12 ) 1.0, 0.0;
    ( 0, u43_u31_u22_u13 ) 0.0, 1.0;
    ( 0, u43_u31_u22_u14 ) 0.0, 1.0;
    ( 0, u43_u31_u23_u11 ) 1.0, 0.0;
    ( 0, u43_u31_u23_u12 ) 1.0, 0.0;
    ( 0, u43_u31_u23_u13 ) 0.0, 1.0;
    ( 0, u43_u31_u23_u14 ) 0.0, 1.0;
    ( 0, u43_u31_u24_u11 ) 1.0, 0.0;
    ( 0, u43_u31_u24_u12 ) 1.0, 0.0;
    ( 0, u43_u31_u24_u13 ) 0.0, 1.0;
    ( 0, u43_u31_u24_u14 ) 0.0, 1.0;
    ( 0, u43_u32_u21_u11 ) 1.0, 0.0;
    ( 0, u43_u32_u21_u12 ) 1.0, 0.0;
    ( 0, u43_u32_u21_u13 ) 0.0, 1.0;
    ( 0, u43_u32_u21_u14 ) 0.0, 1.0;
    ( 0, u43_u32_u22_u11 ) 1.0, 0.0;
    ( 0, u43_u32_u22_u12 ) 1.0, 0.0;
    ( 0, u43_u32_u22_u13 ) 0.0, 1.0;
    ( 0, u43_u32_u22_u14 ) 0.0, 1.0;
    ( 0, u43_u32_u23_u11 ) 1.0, 0.0;
    ( 0, u43_u32_u23_u12 ) 1.0, 0.0;
    ( 0, u43_u32_u23_u13 ) 0.0, 1.0;
    ( 0, u43_u32_u23_u14 ) 0.0, 1.0;
    ( 0, u43_u32_u24_u11 ) 1.0, 0.0;
    ( 0, u43_u32_u24_u12 ) 1.0, 0.0;
    ( 0, u43_u32_u24_u13 ) 0.0, 1.0;
    ( 0, u43_u32_u24_u14 ) 0.0, 1.0;
    ( 0, u43_u33_u21_u11 ) 1.0, 0.0;
    ( 0, u43_u33_u21_u12 ) 1.0, 0.0;
    ( 0, u43_u33_u21_u13 ) 0.0, 1.0;
    ( 0, u43_u33_u21_u14 ) 0.0, 1.0;
    ( 0, u43_u33_u22_u11 ) 1.0, 0.0;
    ( 0, u43_u33_u22_u12 ) 1.0, 0.0;
    ( 0, u43_u33_u22_u13 ) 0.0, 1.0;
    ( 0, u43_u33_u22_u14 ) 0.0, 1.0;
    ( 0, u43_u33_u23_u11 ) 1.0, 0.0;
    ( 0, u43_u33_u23_u12 ) 1.0, 0.0;
    ( 0, u43_u33_u23_u13 ) 0.0, 1.0;
    ( 0, u43_u33_u23_u14 ) 0.0, 1.0;
    ( 0, u43_u33_u24_u11 ) 1.0, 0.0;
    ( 0, u43_u33_u24_u12 ) 1.0, 0.0;
    ( 0, u43_u33_u24_u13 ) 0.0, 1.0;
    ( 0, u43_u33_u24_u14 ) 0.0, 1.0;
    ( 0, u43_u34_u21_u11 ) 1.0, 0.0;
    ( 0, u43_u34_u21_u12 ) 1.0, 0.0;
    ( 0, u43_u34_u21_u13 ) 0.0, 1.0;
    ( 0, u43_u34_u21_u14 ) 0.0, 1.0;
    ( 0, u43_u34_u22_u11 ) 1.0, 0.0;
    ( 0, u43_u34_u22_u12 ) 1.0, 0.0;
    ( 0, u43_u34_u22_u13 ) 0.0, 1.0;
    ( 0, u43_u34_u22_u14 ) 0.0, 1.0;
    ( 0, u43_u34_u23_u11 ) 1.0, 0.0;
    ( 0, u43_u34_u23_u12 ) 1.0, 0.0;
    ( 0, u43_u34_u23_u13 ) 0.0, 1.0;
    ( 0, u43_u34_u23_u14 ) 0.0, 1.0;
    ( 0, u43_u34_u24_u11 ) 1.0, 0.0;
    ( 0, u43_u34_u24_u12 ) 1.0, 0.0;
    ( 0, u43_u34_u24_u13 ) 0.0, 1.0;
    ( 0, u43_u34_u24_u14 ) 0.0, 1.0;
    ( 0, u44_u31_u21_u11 ) 1.0, 0.0;
    ( 0, u44_u31_u21_u12 ) 1.0, 0.0;
    ( 0, u44_u31_u21_u13 ) 0.0, 1.0;
    ( 0, u44_u31_u21_u14 ) 0.0, 1.0;
    ( 0, u44_u31_u22_u11 ) 1.0, 0.0;
    ( 0, u44_u31_u22_u12 ) 1.0, 0.0;
    ( 0, u44_u31_u22_u13 ) 0.0, 1.0;
    ( 0, u44_u31_u22_u14 ) 0.0, 1.0;
    ( 0, u44_u31_u23_u11 ) 1.0, 0.0;
    ( 0, u44_u31_u23_u12 ) 1.0, 0.0;
    ( 0, u44_u31_u23_u13 ) 0.0, 1.0;
    ( 0, u44_u31_u23_u14 ) 0.0, 1.0;
    ( 0, u44_u31_u24_u11 ) 1.0, 0.0;
    ( 0, u44_u31_u24_u12 ) 1.0, 0.0;
    ( 0, u44_u31_u24_u13 ) 0.0, 1.0;
    ( 0, u44_u31_u24_u14 ) 0.0, 1.0;
    ( 0, u44_u32_u21_u11 ) 1.0, 0.0;
    ( 0, u44_u32_u21_u12 ) 1.0, 0.0;
    ( 0, u44_u32_u21_u13 ) 0.0, 1.0;
    ( 0, u44_u32_u21_u14 ) 0.0, 1.0;
    ( 0, u44_u32_u22_u11 ) 1.0, 0.0;
    ( 0, u44_u32_u22_u12 ) 1.0, 0.0;
    ( 0, u44_u32_u22_u13 ) 0.0, 1.0;
    ( 0, u44_u32_u22_u14 ) 0.0, 1.0;
    ( 0, u44_u32_u23_u11 ) 1.0, 0.0;
    ( 0, u44_u32_u23_u12 ) 1.0, 0.0;
    ( 0, u44_u32_u23_u13 ) 0.0, 1.0;
    ( 0, u44_u32_u23_u14 ) 0.0, 1.0;
    ( 0, u44_u32_u24_u11 ) 1.0, 0.0;
    ( 0, u44_u32_u24_u12 ) 1.0, 0.0;
    ( 0, u44_u32_u24_u13 ) 0.0, 1.0;
    ( 0, u44_u32_u24_u14 ) 0.0, 1.0;
    ( 0, u44_u33_u21_u11 ) 1.0, 0.0;
    ( 0, u44_u33_u21_u12 ) 1.0, 0.0;
    ( 0, u44_u33_u21_u13 ) 0.0, 1.0;
    ( 0, u44_u33_u21_u14 ) 0.0, 1.0;
    ( 0, u44_u33_u22_u11 ) 1.0, 0.0;
    ( 0, u44_u33_u22_u12 ) 1.0, 0.0;
    ( 0, u44_u33_u22_u13 ) 0.0, 1.0;
    ( 0, u44_u33_u22_u14 ) 0.0, 1.0;
    ( 0, u44_u33_u23_u11 ) 1.0, 0.0;
    ( 0, u44_u33_u23_u12 ) 1.0, 0.0;
    ( 0, u44_u33_u23_u13 ) 0.0, 1.0;
    ( 0, u44_u33_u23_u14 ) 0.0, 1.0;
    ( 0, u44_u33_u24_u11 ) 1.0, 0.0;
    ( 0, u44_u33_u24_u12 ) 1.0, 0.0;
    ( 0, u44_u33_u24_u13 ) 0.0, 1.0;
    ( 0, u44_u33_u24_u14 ) 0.0, 1.0;
    ( 0, u44_u34_u21_u11 ) 1.0, 0.0;
    ( 0, u44_u34_u21_u12 ) 1.0, 0.0;
    ( 0, u44_u34_u21_u13 ) 0.0, 1.0;
    ( 0, u44_u34_u21_u14 ) 0.0, 1.0;
    ( 0, u44_u34_u22_u11 ) 1.0, 0.0;
    ( 0, u44_u34_u22_u12 ) 1.0, 0.0;
    ( 0, u44_u34_u22_u13 ) 0.0, 1.0;
    ( 0, u44_u34_u22_u14 ) 0.0, 1.0;
    ( 0, u44_u34_u23_u11 ) 1.0, 0.0;
    ( 0, u44_u34_u23_u12 ) 1.0, 0.0;
    ( 0, u44_u34_u23_u13 ) 0.0, 1.0;
    ( 0, u44_u34_u23_u14 ) 0.0, 1.0;
    ( 0, u44_u34_u24_u11 ) 1.0, 0.0;
    ( 0, u44_u34_u24_u12 ) 1.0, 0.0;
    ( 0, u44_u34_u24_u13 ) 0.0, 1.0;
    ( 0, u44_u34_u24_u14 ) 0.0, 1.0;
    ( 1, u41_u31_u21_u11 ) 1.0, 0.0;
    ( 1, u41_u31_u21_u12 ) 0.0, 1.0;
    ( 1, u41_u31_u21_u13 ) 1.0, 0.0;
    ( 1, u41_u31_u21_u14 ) 0.0, 1.0;
    ( 1, u41_u31_u22_u11 ) 1.0, 0.0;
    ( 1, u41_u31_u22_u12 ) 0.0, 1.0;
    ( 1, u41_u31_u22_u13 ) 1.0, 0.0;
    ( 1, u41_u31_u22_u14 ) 0.0, 1.0;
    ( 1, u41_u31_u23_u11 ) 1.0, 0.0;
    ( 1, u41_u31_u23_u12 ) 0.0, 1.0;
    ( 1, u41_u31_u23_u13 ) 1.0, 0.0;
    ( 1, u41_u31_u23_u14 ) 0.0, 1.0;
    ( 1, u41_u31_u24_u11 ) 1.0, 0.0;
    ( 1, u41_u31_u24_u12 ) 0.0, 1.0;
    ( 1, u41_u31_u24_u13 ) 1.0, 0.0;
    ( 1, u41_u31_u24_u14 ) 0.0, 1.0;
    ( 1, u41_u32_u21_u11 ) 1.0, 0.0;
    ( 1, u41_u32_u21_u12 ) 0.0, 1.0;
    ( 1, u41_u32_u21_u13 ) 1.0, 0.0;
    ( 1, u41_u32_u21_u14 ) 0.0, 1.0;
    ( 1, u41_u32_u22_u11 ) 1.0, 0.0;
    ( 1, u41_u32_u22_u12 ) 0.0, 1.0;
    ( 1, u41_u32_u22_u13 ) 1.0, 0.0;
    ( 1, u41_u32_u22_u14 ) 0.0, 1.0;
    ( 1, u41_u32_u23_u11 ) 1.0, 0.0;
    ( 1, u41_u32_u23_u12 ) 0.0, 1.0;
    ( 1, u41_u32_u23_u13 ) 1.0, 0.0;
    ( 1, u41_u32_u23_u14 ) 0.0, 1.0;
    ( 1, u41_u32_u24_u11 ) 1.0, 0.0;
    ( 1, u41_u32_u24_u12 ) 0.0, 1.0;
    ( 1, u41_u32_u24_u13 ) 1.0, 0.0;
    ( 1, u41_u32_u24_u14 ) 0.0, 1.0;
    ( 1, u41_u33_u21_u11 ) 1.0, 0.0;
    ( 1, u41_u33_u21_u12 ) 0.0, 1.0;
    ( 1, u41_u33_u21_u13 ) 1.0, 0.0;
    ( 1, u41_u33_u21_u14 ) 0.0, 1.0;
    ( 1, u41_u33_u22_u11 ) 1.0, 0.0;
    ( 1, u41_u33_u22_u12 ) 0.0, 1.0;
    ( 1, u41_u33_u22_u13 ) 1.0, 0.0;
    ( 1, u41_u33_u22_u14 ) 0.0, 1.0;
    ( 1, u41_u33_u23_u11 ) 1.0, 0.0;
    ( 1, u41_u33_u23_u12 ) 0.0, 1.0;
    ( 1, u41_u33_u23_u13 ) 1.0, 0.0;
    ( 1, u41_u33_u23_u14 ) 0.0, 1.0;
    ( 1, u41_u33_u24_u11 ) 1.0, 0.0;
    ( 1, u41_u33_u24_u12 ) 0.0, 1.0;
    ( 1, u41_u33_u24_u13 ) 1.0, 0.0;
    ( 1, u41_u33_u24_u14 ) 0.0, 1.0;
    ( 1, u41_u34_u21_u11 ) 1.0, 0.0;
    ( 1, u41_u34_u21_u12 ) 0.0, 1.0;
    ( 1, u41_u34_u21_u13 ) 1.0, 0.0;
    ( 1, u41_u34_u21_u14 ) 0.0, 1.0;
    ( 1, u41_u34_u22_u11 ) 1.0, 0.0;
    ( 1, u41_u34_u22_u12 ) 0.0, 1.0;
    ( 1, u41_u34_u22_u13 ) 1.0, 0.0;
    ( 1, u41_u34_u22_u14 ) 0.0, 1.0;
    ( 1, u41_u34_u23_u11 ) 1.0, 0.0;
    ( 1, u41_u34_u23_u12 ) 0.0, 1.0;
    ( 1, u41_u34_u23_u13 ) 1.0, 0.0;
    ( 1, u41_u34_u23_u14 ) 0.0, 1.0;
    ( 1, u41_u34_u24_u11 ) 1.0, 0.0;
    ( 1, u41_u34_u24_u12 ) 0.0, 1.0;
    ( 1, u41_u34_u24_u13 ) 1.0, 0.0;
    ( 1, u41_u34_u24_u14 ) 0.0, 1.0;
    ( 1, u42_u31_u21_u11 ) 1.0, 0.0;
    ( 1, u42_u31_u21_u12 ) 0.0, 1.0;
    ( 1, u42_u31_u21_u13 ) 1.0, 0.0;
    ( 1, u42_u31_u21_u14 ) 0.0, 1.0;
    ( 1, u42_u31_u22_u11 ) 1.0, 0.0;
    ( 1, u42_u31_u22_u12 ) 0.0, 1.0;
    ( 1, u42_u31_u22_u13 ) 1.0, 0.0;
    ( 1, u42_u31_u22_u14 ) 0.0, 1.0;
    ( 1, u42_u31_u23_u11 ) 1.0, 0.0;
    ( 1, u42_u31_u23_u12 ) 0.0, 1.0;
    ( 1, u42_u31_u23_u13 ) 1.0, 0.0;
    ( 1, u42_u31_u23_u14 ) 0.0, 1.0;
    ( 1, u42_u31_u24_u11 ) 1.0, 0.0;
    ( 1, u42_u31_u24_u12 ) 0.0, 1.0;
    ( 1, u42_u31_u24_u13 ) 1.0, 0.0;
    ( 1, u42_u31_u24_u14 ) 0.0, 1.0;
    ( 1, u42_u32_u21_u11 ) 1.0, 0.0;
    ( 1, u42_u32_u21_u12 ) 0.0, 1.0;
    ( 1, u42_u32_u21_u13 ) 1.0, 0.0;
    ( 1, u42_u32_u21_u14 ) 0.0, 1.0;
    ( 1, u42_u32_u22_u11 ) 1.0, 0.0;
    ( 1, u42_u32_u22_u12 ) 0.0, 1.0;
    ( 1, u42_u32_u22_u13 ) 1.0, 0.0;
    ( 1, u42_u32_u22_u14 ) 0.0, 1.0;
    ( 1, u42_u32_u23_u11 ) 1.0, 0.0;
    ( 1, u42_u32_u23_u12 ) 0.0, 1.0;
    ( 1, u42_u32_u23_u13 ) 1.0, 0.0;
    ( 1, u42_u32_u23_u14 ) 0.0, 1.0;
    ( 1, u42_u32_u24_u11 ) 1.0, 0.0;
    ( 1, u42_u32_u24_u12 ) 0.0, 1.0;
    ( 1, u42_u32_u24_u13 ) 1.0, 0.0;
    ( 1, u42_u32_u24_u14 ) 0.0, 1.0;
    ( 1, u42_u33_u21_u11 ) 1.0, 0.0;
    ( 1, u42_u33_u21_u12 ) 0.0, 1.0;
    ( 1, u42_u33_u21_u13 ) 1.0, 0.0;
    ( 1, u42_u33_u21_u14 ) 0.0, 1.0;
    ( 1, u42_u33_u22_u11 ) 1.0, 0.0;
    ( 1, u42_u33_u22_u12 ) 0.0, 1.0;
    ( 1, u42_u33_u22_u13 ) 1.0, 0.0;
    ( 1, u42_u33_u22_u14 ) 0.0, 1.0;
    ( 1, u42_u33_u23_u11 ) 1.0, 0.0;
    ( 1, u42_u33_u23_u12 ) 0.0, 1.0;
    ( 1, u42_u33_u23_u13 ) 1.0, 0.0;
    ( 1, u42_u33_u23_u14 ) 0.0, 1.0;
    ( 1, u42_u33_u24_u11 ) 1.0, 0.0;
    ( 1, u42_u33_u24_u12 ) 0.0, 1.0;
    ( 1, u42_u33_u24_u13 ) 1.0, 0.0;
    ( 1, u42_u33_u24_u14 ) 0.0, 1.0;
    ( 1, u42_u34_u21_u11 ) 1.0, 0.0;
    ( 1, u42_u34_u21_u12 ) 0.0, 1.0;
    ( 1, u42_u34_u21_u13 ) 1.0, 0.0;
    ( 1, u42_u34_u21_u14 ) 0.0, 1.0;
    ( 1, u42_u34_u22_u11 ) 1.0, 0.0;
    ( 1, u42_u34_u22_u12 ) 0.0, 1.0;
    ( 1, u42_u34_u22_u13 ) 1.0, 0.0;
    ( 1, u42_u34_u22_u14 ) 0.0, 1.0;
    ( 1, u42_u34_u23_u11 ) 1.0, 0.0;
    ( 1, u42_u34_u23_u12 ) 0.0, 1.0;
    ( 1, u42_u34_u23_u13 ) 1.0, 0.0;
    ( 1, u42_u34_u23_u14 ) 0.0, 1.0;
    ( 1, u42_u34_u24_u11 ) 1.0, 0.0;
    ( 1, u42_u34_u24_u12 ) 0.0, 1.0;
    ( 1, u42_u34_u24_u13 ) 1.0, 0.0;
    ( 1, u42_u34_u24_u14 ) 0.0, 1.0;
    ( 1, u43_u31_u21_u11 ) 1.0, 0.0;
    ( 1, u43_u31_u21_u12 ) 0.0, 1.0;
    ( 1, u43_u31_u21_u13 ) 1.0, 0.0;
    ( 1, u43_u31_u21_u14 ) 0.0, 1.0;
    ( 1, u43_u31_u22_u11 ) 1.0, 0.0;
    ( 1, u43_u31_u22_u12 ) 0.0, 1.0;
    ( 1, u43_u31_u22_u13 ) 1.0, 0.0;
    ( 1, u43_u31_u22_u14 ) 0.0, 1.0;
    ( 1, u43_u31_u23_u11 ) 1.0, 0.0;
    ( 1, u43_u31_u23_u12 ) 0.0, 1.0;
    ( 1, u43_u31_u23_u13 ) 1.0, 0.0;
    ( 1, u43_u31_u23_u14 ) 0.0, 1.0;
    ( 1, u43_u31_u24_u11 ) 1.0, 0.0;
    ( 1, u43_u31_u24_u12 ) 0.0, 1.0;
    ( 1, u43_u31_u24_u13 ) 1.0, 0.0;
    ( 1, u43_u31_u24_u14 ) 0.0, 1.0;
    ( 1, u43_u32_u21_u11 ) 1.0, 0.0;
    ( 1, u43_u32_u21_u12 ) 0.0, 1.0;
    ( 1, u43_u32_u21_u13 ) 1.0, 0.0;
    ( 1, u43_u32_u21_u14 ) 0.0, 1.0;
    ( 1, u43_u32_u22_u11 ) 1.0, 0.0;
    ( 1, u43_u32_u22_u12 ) 0.0, 1.0;
    ( 1, u43_u32_u22_u13 ) 1.0, 0.0;
    ( 1, u43_u32_u22_u14 ) 0.0, 1.0;
    ( 1, u43_u32_u23_u11 ) 1.0, 0.0;
    ( 1, u43_u32_u23_u12 ) 0.0, 1.0;
    ( 1, u43_u32_u23_u13 ) 1.0, 0.0;
    ( 1, u43_u32_u23_u14 ) 0.0, 1.0;
    ( 1, u43_u32_u24_u11 ) 1.0, 0.0;
    ( 1, u43_u32_u24_u12 ) 0.0, 1.0;
    ( 1, u43_u32_u24_u13 ) 1.0, 0.0;
    ( 1, u43_u32_u24_u14 ) 0.0, 1.0;
    ( 1, u43_u33_u21_u11 ) 1.0, 0.0;
    ( 1, u43_u33_u21_u12 ) 0.0, 1.0;
    ( 1, u43_u33_u21_u13 ) 1.0, 0.0;
    ( 1, u43_u33_u21_u14 ) 0.0, 1.0;
    ( 1, u43_u33_u22_u11 ) 1.0, 0.0;
    ( 1, u43_u33_u22_u12 ) 0.0, 1.0;
    ( 1, u43_u33_u22_u13 ) 1.0, 0.0;
    ( 1, u43_u33_u22_u14 ) 0.0, 1.0;
    ( 1, u43_u33_u23_u11 ) 1.0, 0.0;
    ( 1, u43_u33_u23_u12 ) 0.0, 1.0;
    ( 1, u43_u33_u23_u13 ) 1.0, 0.0;
    ( 1, u43_u33_u23_u14 ) 0.0, 1.0;
    ( 1, u43_u33_u24_u11 ) 1.0, 0.0;
    ( 1, u43_u33_u24_u12 ) 0.0, 1.0;
    ( 1, u43_u33_u24_u13 ) 1.0, 0.0;
    ( 1, u43_u33_u24_u14 ) 0.0, 1.0;
    ( 1, u43_u34_u21_u11 ) 1.0, 0.0;
    ( 1, u43_u34_u21_u12 ) 0.0, 1.0;
    ( 1, u43_u34_u21_u13 ) 1.0, 0.0;
    ( 1, u43_u34_u21_u14 ) 0.0, 1.0;
    ( 1, u43_u34_u22_u11 ) 1.0, 0.0;
    ( 1, u43_u34_u22_u12 ) 0.0, 1.0;
    ( 1, u43_u34_u22_u13 ) 1.0, 0.0;
    ( 1, u43_u34_u22_u14 ) 0.0, 1.0;
    ( 1, u43_u34_u23_u11 ) 1.0, 0.0;
    ( 1, u43_u34_u23_u12 ) 0.0, 1.0;
    ( 1, u43_u34_u23_u13 ) 1.0, 0.0;
    ( 1, u43_u34_u23_u14 ) 0.0, 1.0;
    ( 1, u43_u34_u24_u11 ) 1.0, 0.0;
    ( 1, u43_u34_u24_u12 ) 0.0, 1.0;
    ( 1, u43_u34_u24_u13 ) 1.0, 0.0;
    ( 1, u43_u34_u24_u14 ) 0.0, 1.0;
    ( 1, u44_u31_u21_u11 ) 1.0, 0.0;
    ( 1, u44_u31_u21_u12 ) 0.0, 1.0;
    ( 1, u44_u31_u21_u13 ) 1.0, 0.0;
    ( 1, u44_u31_u21_u14 ) 0.0, 1.0;
    ( 1, u44_u31_u22_u11 ) 1.0, 0.0;
    ( 1, u44_u31_u22_u12 ) 0.0, 1.0;
    ( 1, u44_u31_u22_u13 ) 1.0, 0.0;
    ( 1, u44_u31_u22_u14 ) 0.0, 1.0;
    ( 1, u44_u31_u23_u11 ) 1.0, 0.0;
    ( 1, u44_u31_u23_u12 ) 0.0, 1.0;
    ( 1, u44_u31_u23_u13 ) 1.0, 0.0;
    ( 1, u44_u31_u23_u14 ) 0.0, 1.0;
    ( 1, u44_u31_u24_u11 ) 1.0, 0.0;
    ( 1, u44_u31_u24_u12 ) 0.0, 1.0;
    ( 1, u44_u31_u24_u13 ) 1.0, 0.0;
    ( 1, u44_u31_u24_u14 ) 0.0, 1.0;
    ( 1, u44_u32_u21_u11 ) 1.0, 0.0;
    ( 1, u44_u32_u21_u12 ) 0.0, 1.0;
    ( 1, u44_u32_u21_u13 ) 1.0, 0.0;
    ( 1, u44_u32_u21_u14 ) 0.0, 1.0;
    ( 1, u44_u32_u22_u11 ) 1.0, 0.0;
    ( 1, u44_u32_u22_u12 ) 0.0, 1.0;
    ( 1, u44_u32_u22_u13 ) 1.0, 0.0;
    ( 1, u44_u32_u22_u14 ) 0.0, 1.0;
    ( 1, u44_u32_u23_u11 ) 1.0, 0.0;
    ( 1, u44_u32_u23_u12 ) 0.0, 1.0;
    ( 1, u44_u32_u23_u13 ) 1.0, 0.0;
    ( 1, u44_u32_u23_u14 ) 0.0, 1.0;
    ( 1, u44_u32_u24_u11 ) 1.0, 0.0;
    ( 1, u44_u32_u24_u12 ) 0.0, 1.0;
    ( 1, u44_u32_u24_u13 ) 1.0, 0.0;
    ( 1, u44_u32_u24_u14 ) 0.0, 1.0;
    ( 1, u44_u33_u21_u11 ) 1.0, 0.0;
    ( 1, u44_u33_u21_u12 ) 0.0, 1.0;
    ( 1, u44_u33_u21_u13 ) 1.0, 0.0;
    ( 1, u44_u33_u21_u14 ) 0.0, 1.0;
    ( 1, u44_u33_u22_u11 ) 1.0, 0.0;
    ( 1, u44_u33_u22_u12 ) 0.0, 1.0;
    ( 1, u44_u33_u22_u13 ) 1.0, 0.0;
    ( 1, u44_u33_u22_u14 ) 0.0, 1.0;
    ( 1, u44_u33_u23_u11 ) 1.0, 0.0;
    ( 1, u44_u33_u23_u12 ) 0.0, 1.0;
    ( 1, u44_u33_u23_u13 ) 1.0, 0.0;
    ( 1, u44_u33_u23_u14 ) 0.0, 1.0;
    ( 1, u44_u33_u24_u11 ) 1.0, 0.0;
    ( 1, u44_u33_u24_u12 ) 0.0, 1.0;
    ( 1, u44_u33_u24_u13 ) 1.0, 0.0;
    ( 1, u44_u33_u24_u14 ) 0.0, 1.0;
    ( 1, u44_u34_u21_u11 ) 1.0, 0.0;
    ( 1, u44_u34_u21_u12 ) 0.0, 1.0;
    ( 1, u44_u34_u21_u13 ) 1.0, 0.0;
    ( 1, u44_u34_u21_u14 ) 0.0, 1.0;
    ( 1, u44_u34_u22_u11 ) 1.0, 0.0;
    ( 1, u44_u34_u22_u12 ) 0.0, 1.0;
    ( 1, u44_u34_u22_u13 ) 1.0, 0.0;
    ( 1, u44_u34_u22_u14 ) 0.0, 1.0;
    ( 1, u44_u34_u23_u11 ) 1.0, 0.0;
    ( 1, u44_u34_u23_u12 ) 0.0, 1.0;
    ( 1, u44_u34_u23_u13 ) 1.0, 0.0;
    ( 1, u44_u34_u23_u14 ) 0.0, 1.0;
    ( 1, u44_u34_u24_u11 ) 1.0, 0.0;
    ( 1, u44_u34_u24_u12 ) 0.0, 1.0;
    ( 1, u44_u34_u24_u13 ) 1.0, 0.0;
    ( 1, u44_u34_u24_u14 ) 0.0, 1.0;

}
probability ( Y2 | Y1, U1U2U3U4 ) {
    ( 0, u41_u31_u21_u11 ) 1.0, 0.0;
    ( 0, u41_u31_u21_u12 ) 1.0, 0.0;
    ( 0, u41_u31_u21_u13 ) 1.0, 0.0;
    ( 0, u41_u31_u21_u14 ) 1.0, 0.0;
    ( 0, u41_u31_u22_u11 ) 1.0, 0.0;
    ( 0, u41_u31_u22_u12 ) 1.0, 0.0;
    ( 0, u41_u31_u22_u13 ) 1.0, 0.0;
    ( 0, u41_u31_u22_u14 ) 1.0, 0.0;
    ( 0, u41_u31_u23_u11 ) 0.0, 1.0;
    ( 0, u41_u31_u23_u12 ) 0.0, 1.0;
    ( 0, u41_u31_u23_u13 ) 0.0, 1.0;
    ( 0, u41_u31_u23_u14 ) 0.0, 1.0;
    ( 0, u41_u31_u24_u11 ) 0.0, 1.0;
    ( 0, u41_u31_u24_u12 ) 0.0, 1.0;
    ( 0, u41_u31_u24_u13 ) 0.0, 1.0;
    ( 0, u41_u31_u24_u14 ) 0.0, 1.0;
    ( 0, u41_u32_u21_u11 ) 1.0, 0.0;
    ( 0, u41_u32_u21_u12 ) 1.0, 0.0;
    ( 0, u41_u32_u21_u13 ) 1.0, 0.0;
    ( 0, u41_u32_u21_u14 ) 1.0, 0.0;
    ( 0, u41_u32_u22_u11 ) 1.0, 0.0;
    ( 0, u41_u32_u22_u12 ) 1.0, 0.0;
    ( 0, u41_u32_u22_u13 ) 1.0, 0.0;
    ( 0, u41_u32_u22_u14 ) 1.0, 0.0;
    ( 0, u41_u32_u23_u11 ) 0.0, 1.0;
    ( 0, u41_u32_u23_u12 ) 0.0, 1.0;
    ( 0, u41_u32_u23_u13 ) 0.0, 1.0;
    ( 0, u41_u32_u23_u14 ) 0.0, 1.0;
    ( 0, u41_u32_u24_u11 ) 0.0, 1.0;
    ( 0, u41_u32_u24_u12 ) 0.0, 1.0;
    ( 0, u41_u32_u24_u13 ) 0.0, 1.0;
    ( 0, u41_u32_u24_u14 ) 0.0, 1.0;
    ( 0, u41_u33_u21_u11 ) 1.0, 0.0;
    ( 0, u41_u33_u21_u12 ) 1.0, 0.0;
    ( 0, u41_u33_u21_u13 ) 1.0, 0.0;
    ( 0, u41_u33_u21_u14 ) 1.0, 0.0;
    ( 0, u41_u33_u22_u11 ) 1.0, 0.0;
    ( 0, u41_u33_u22_u12 ) 1.0, 0.0;
    ( 0, u41_u33_u22_u13 ) 1.0, 0.0;
    ( 0, u41_u33_u22_u14 ) 1.0, 0.0;
    ( 0, u41_u33_u23_u11 ) 0.0, 1.0;
    ( 0, u41_u33_u23_u12 ) 0.0, 1.0;
    ( 0, u41_u33_u23_u13 ) 0.0, 1.0;
    ( 0, u41_u33_u23_u14 ) 0.0, 1.0;
    ( 0, u41_u33_u24_u11 ) 0.0, 1.0;
    ( 0, u41_u33_u24_u12 ) 0.0, 1.0;
    ( 0, u41_u33_u24_u13 ) 0.0, 1.0;
    ( 0, u41_u33_u24_u14 ) 0.0, 1.0;
    ( 0, u41_u34_u21_u11 ) 1.0, 0.0;
    ( 0, u41_u34_u21_u12 ) 1.0, 0.0;
    ( 0, u41_u34_u21_u13 ) 1.0, 0.0;
    ( 0, u41_u34_u21_u14 ) 1.0, 0.0;
    ( 0, u41_u34_u22_u11 ) 1.0, 0.0;
    ( 0, u41_u34_u22_u12 ) 1.0, 0.0;
    ( 0, u41_u34_u22_u13 ) 1.0, 0.0;
    ( 0, u41_u34_u22_u14 ) 1.0, 0.0;
    ( 0, u41_u34_u23_u11 ) 0.0, 1.0;
    ( 0, u41_u34_u23_u12 ) 0.0, 1.0;
    ( 0, u41_u34_u23_u13 ) 0.0, 1.0;
    ( 0, u41_u34_u23_u14 ) 0.0, 1.0;
    ( 0, u41_u34_u24_u11 ) 0.0, 1.0;
    ( 0, u41_u34_u24_u12 ) 0.0, 1.0;
    ( 0, u41_u34_u24_u13 ) 0.0, 1.0;
    ( 0, u41_u34_u24_u14 ) 0.0, 1.0;
    ( 0, u42_u31_u21_u11 ) 1.0, 0.0;
    ( 0, u42_u31_u21_u12 ) 1.0, 0.0;
    ( 0, u42_u31_u21_u13 ) 1.0, 0.0;
    ( 0, u42_u31_u21_u14 ) 1.0, 0.0;
    ( 0, u42_u31_u22_u11 ) 1.0, 0.0;
    ( 0, u42_u31_u22_u12 ) 1.0, 0.0;
    ( 0, u42_u31_u22_u13 ) 1.0, 0.0;
    ( 0, u42_u31_u22_u14 ) 1.0, 0.0;
    ( 0, u42_u31_u23_u11 ) 0.0, 1.0;
    ( 0, u42_u31_u23_u12 ) 0.0, 1.0;
    ( 0, u42_u31_u23_u13 ) 0.0, 1.0;
    ( 0, u42_u31_u23_u14 ) 0.0, 1.0;
    ( 0, u42_u31_u24_u11 ) 0.0, 1.0;
    ( 0, u42_u31_u24_u12 ) 0.0, 1.0;
    ( 0, u42_u31_u24_u13 ) 0.0, 1.0;
    ( 0, u42_u31_u24_u14 ) 0.0, 1.0;
    ( 0, u42_u32_u21_u11 ) 1.0, 0.0;
    ( 0, u42_u32_u21_u12 ) 1.0, 0.0;
    ( 0, u42_u32_u21_u13 ) 1.0, 0.0;
    ( 0, u42_u32_u21_u14 ) 1.0, 0.0;
    ( 0, u42_u32_u22_u11 ) 1.0, 0.0;
    ( 0, u42_u32_u22_u12 ) 1.0, 0.0;
    ( 0, u42_u32_u22_u13 ) 1.0, 0.0;
    ( 0, u42_u32_u22_u14 ) 1.0, 0.0;
    ( 0, u42_u32_u23_u11 ) 0.0, 1.0;
    ( 0, u42_u32_u23_u12 ) 0.0, 1.0;
    ( 0, u42_u32_u23_u13 ) 0.0, 1.0;
    ( 0, u42_u32_u23_u14 ) 0.0, 1.0;
    ( 0, u42_u32_u24_u11 ) 0.0, 1.0;
    ( 0, u42_u32_u24_u12 ) 0.0, 1.0;
    ( 0, u42_u32_u24_u13 ) 0.0, 1.0;
    ( 0, u42_u32_u24_u14 ) 0.0, 1.0;
    ( 0, u42_u33_u21_u11 ) 1.0, 0.0;
    ( 0, u42_u33_u21_u12 ) 1.0, 0.0;
    ( 0, u42_u33_u21_u13 ) 1.0, 0.0;
    ( 0, u42_u33_u21_u14 ) 1.0, 0.0;
    ( 0, u42_u33_u22_u11 ) 1.0, 0.0;
    ( 0, u42_u33_u22_u12 ) 1.0, 0.0;
    ( 0, u42_u33_u22_u13 ) 1.0, 0.0;
    ( 0, u42_u33_u22_u14 ) 1.0, 0.0;
    ( 0, u42_u33_u23_u11 ) 0.0, 1.0;
    ( 0, u42_u33_u23_u12 ) 0.0, 1.0;
    ( 0, u42_u33_u23_u13 ) 0.0, 1.0;
    ( 0, u42_u33_u23_u14 ) 0.0, 1.0;
    ( 0, u42_u33_u24_u11 ) 0.0, 1.0;
    ( 0, u42_u33_u24_u12 ) 0.0, 1.0;
    ( 0, u42_u33_u24_u13 ) 0.0, 1.0;
    ( 0, u42_u33_u24_u14 ) 0.0, 1.0;
    ( 0, u42_u34_u21_u11 ) 1.0, 0.0;
    ( 0, u42_u34_u21_u12 ) 1.0, 0.0;
    ( 0, u42_u34_u21_u13 ) 1.0, 0.0;
    ( 0, u42_u34_u21_u14 ) 1.0, 0.0;
    ( 0, u42_u34_u22_u11 ) 1.0, 0.0;
    ( 0, u42_u34_u22_u12 ) 1.0, 0.0;
    ( 0, u42_u34_u22_u13 ) 1.0, 0.0;
    ( 0, u42_u34_u22_u14 ) 1.0, 0.0;
    ( 0, u42_u34_u23_u11 ) 0.0, 1.0;
    ( 0, u42_u34_u23_u12 ) 0.0, 1.0;
    ( 0, u42_u34_u23_u13 ) 0.0, 1.0;
    ( 0, u42_u34_u23_u14 ) 0.0, 1.0;
    ( 0, u42_u34_u24_u11 ) 0.0, 1.0;
    ( 0, u42_u34_u24_u12 ) 0.0, 1.0;
    ( 0, u42_u34_u24_u13 ) 0.0, 1.0;
    ( 0, u42_u34_u24_u14 ) 0.0, 1.0;
    ( 0, u43_u31_u21_u11 ) 1.0, 0.0;
    ( 0, u43_u31_u21_u12 ) 1.0, 0.0;
    ( 0, u43_u31_u21_u13 ) 1.0, 0.0;
    ( 0, u43_u31_u21_u14 ) 1.0, 0.0;
    ( 0, u43_u31_u22_u11 ) 1.0, 0.0;
    ( 0, u43_u31_u22_u12 ) 1.0, 0.0;
    ( 0, u43_u31_u22_u13 ) 1.0, 0.0;
    ( 0, u43_u31_u22_u14 ) 1.0, 0.0;
    ( 0, u43_u31_u23_u11 ) 0.0, 1.0;
    ( 0, u43_u31_u23_u12 ) 0.0, 1.0;
    ( 0, u43_u31_u23_u13 ) 0.0, 1.0;
    ( 0, u43_u31_u23_u14 ) 0.0, 1.0;
    ( 0, u43_u31_u24_u11 ) 0.0, 1.0;
    ( 0, u43_u31_u24_u12 ) 0.0, 1.0;
    ( 0, u43_u31_u24_u13 ) 0.0, 1.0;
    ( 0, u43_u31_u24_u14 ) 0.0, 1.0;
    ( 0, u43_u32_u21_u11 ) 1.0, 0.0;
    ( 0, u43_u32_u21_u12 ) 1.0, 0.0;
    ( 0, u43_u32_u21_u13 ) 1.0, 0.0;
    ( 0, u43_u32_u21_u14 ) 1.0, 0.0;
    ( 0, u43_u32_u22_u11 ) 1.0, 0.0;
    ( 0, u43_u32_u22_u12 ) 1.0, 0.0;
    ( 0, u43_u32_u22_u13 ) 1.0, 0.0;
    ( 0, u43_u32_u22_u14 ) 1.0, 0.0;
    ( 0, u43_u32_u23_u11 ) 0.0, 1.0;
    ( 0, u43_u32_u23_u12 ) 0.0, 1.0;
    ( 0, u43_u32_u23_u13 ) 0.0, 1.0;
    ( 0, u43_u32_u23_u14 ) 0.0, 1.0;
    ( 0, u43_u32_u24_u11 ) 0.0, 1.0;
    ( 0, u43_u32_u24_u12 ) 0.0, 1.0;
    ( 0, u43_u32_u24_u13 ) 0.0, 1.0;
    ( 0, u43_u32_u24_u14 ) 0.0, 1.0;
    ( 0, u43_u33_u21_u11 ) 1.0, 0.0;
    ( 0, u43_u33_u21_u12 ) 1.0, 0.0;
    ( 0, u43_u33_u21_u13 ) 1.0, 0.0;
    ( 0, u43_u33_u21_u14 ) 1.0, 0.0;
    ( 0, u43_u33_u22_u11 ) 1.0, 0.0;
    ( 0, u43_u33_u22_u12 ) 1.0, 0.0;
    ( 0, u43_u33_u22_u13 ) 1.0, 0.0;
    ( 0, u43_u33_u22_u14 ) 1.0, 0.0;
    ( 0, u43_u33_u23_u11 ) 0.0, 1.0;
    ( 0, u43_u33_u23_u12 ) 0.0, 1.0;
    ( 0, u43_u33_u23_u13 ) 0.0, 1.0;
    ( 0, u43_u33_u23_u14 ) 0.0, 1.0;
    ( 0, u43_u33_u24_u11 ) 0.0, 1.0;
    ( 0, u43_u33_u24_u12 ) 0.0, 1.0;
    ( 0, u43_u33_u24_u13 ) 0.0, 1.0;
    ( 0, u43_u33_u24_u14 ) 0.0, 1.0;
    ( 0, u43_u34_u21_u11 ) 1.0, 0.0;
    ( 0, u43_u34_u21_u12 ) 1.0, 0.0;
    ( 0, u43_u34_u21_u13 ) 1.0, 0.0;
    ( 0, u43_u34_u21_u14 ) 1.0, 0.0;
    ( 0, u43_u34_u22_u11 ) 1.0, 0.0;
    ( 0, u43_u34_u22_u12 ) 1.0, 0.0;
    ( 0, u43_u34_u22_u13 ) 1.0, 0.0;
    ( 0, u43_u34_u22_u14 ) 1.0, 0.0;
    ( 0, u43_u34_u23_u11 ) 0.0, 1.0;
    ( 0, u43_u34_u23_u12 ) 0.0, 1.0;
    ( 0, u43_u34_u23_u13 ) 0.0, 1.0;
    ( 0, u43_u34_u23_u14 ) 0.0, 1.0;
    ( 0, u43_u34_u24_u11 ) 0.0, 1.0;
    ( 0, u43_u34_u24_u12 ) 0.0, 1.0;
    ( 0, u43_u34_u24_u13 ) 0.0, 1.0;
    ( 0, u43_u34_u24_u14 ) 0.0, 1.0;
    ( 0, u44_u31_u21_u11 ) 1.0, 0.0;
    ( 0, u44_u31_u21_u12 ) 1.0, 0.0;
    ( 0, u44_u31_u21_u13 ) 1.0, 0.0;
    ( 0, u44_u31_u21_u14 ) 1.0, 0.0;
    ( 0, u44_u31_u22_u11 ) 1.0, 0.0;
    ( 0, u44_u31_u22_u12 ) 1.0, 0.0;
    ( 0, u44_u31_u22_u13 ) 1.0, 0.0;
    ( 0, u44_u31_u22_u14 ) 1.0, 0.0;
    ( 0, u44_u31_u23_u11 ) 0.0, 1.0;
    ( 0, u44_u31_u23_u12 ) 0.0, 1.0;
    ( 0, u44_u31_u23_u13 ) 0.0, 1.0;
    ( 0, u44_u31_u23_u14 ) 0.0, 1.0;
    ( 0, u44_u31_u24_u11 ) 0.0, 1.0;
    ( 0, u44_u31_u24_u12 ) 0.0, 1.0;
    ( 0, u44_u31_u24_u13 ) 0.0, 1.0;
    ( 0, u44_u31_u24_u14 ) 0.0, 1.0;
    ( 0, u44_u32_u21_u11 ) 1.0, 0.0;
    ( 0, u44_u32_u21_u12 ) 1.0, 0.0;
    ( 0, u44_u32_u21_u13 ) 1.0, 0.0;
    ( 0, u44_u32_u21_u14 ) 1.0, 0.0;
    ( 0, u44_u32_u22_u11 ) 1.0, 0.0;
    ( 0, u44_u32_u22_u12 ) 1.0, 0.0;
    ( 0, u44_u32_u22_u13 ) 1.0, 0.0;
    ( 0, u44_u32_u22_u14 ) 1.0, 0.0;
    ( 0, u44_u32_u23_u11 ) 0.0, 1.0;
    ( 0, u44_u32_u23_u12 ) 0.0, 1.0;
    ( 0, u44_u32_u23_u13 ) 0.0, 1.0;
    ( 0, u44_u32_u23_u14 ) 0.0, 1.0;
    ( 0, u44_u32_u24_u11 ) 0.0, 1.0;
    ( 0, u44_u32_u24_u12 ) 0.0, 1.0;
    ( 0, u44_u32_u24_u13 ) 0.0, 1.0;
    ( 0, u44_u32_u24_u14 ) 0.0, 1.0;
    ( 0, u44_u33_u21_u11 ) 1.0, 0.0;
    ( 0, u44_u33_u21_u12 ) 1.0, 0.0;
    ( 0, u44_u33_u21_u13 ) 1.0, 0.0;
    ( 0, u44_u33_u21_u14 ) 1.0, 0.0;
    ( 0, u44_u33_u22_u11 ) 1.0, 0.0;
    ( 0, u44_u33_u22_u12 ) 1.0, 0.0;
    ( 0, u44_u33_u22_u13 ) 1.0, 0.0;
    ( 0, u44_u33_u22_u14 ) 1.0, 0.0;
    ( 0, u44_u33_u23_u11 ) 0.0, 1.0;
    ( 0, u44_u33_u23_u12 ) 0.0, 1.0;
    ( 0, u44_u33_u23_u13 ) 0.0, 1.0;
    ( 0, u44_u33_u23_u14 ) 0.0, 1.0;
    ( 0, u44_u33_u24_u11 ) 0.0, 1.0;
    ( 0, u44_u33_u24_u12 ) 0.0, 1.0;
    ( 0, u44_u33_u24_u13 ) 0.0, 1.0;
    ( 0, u44_u33_u24_u14 ) 0.0, 1.0;
    ( 0, u44_u34_u21_u11 ) 1.0, 0.0;
    ( 0, u44_u34_u21_u12 ) 1.0, 0.0;
    ( 0, u44_u34_u21_u13 ) 1.0, 0.0;
    ( 0, u44_u34_u21_u14 ) 1.0, 0.0;
    ( 0, u44_u34_u22_u11 ) 1.0, 0.0;
    ( 0, u44_u34_u22_u12 ) 1.0, 0.0;
    ( 0, u44_u34_u22_u13 ) 1.0, 0.0;
    ( 0, u44_u34_u22_u14 ) 1.0, 0.0;
    ( 0, u44_u34_u23_u11 ) 0.0, 1.0;
    ( 0, u44_u34_u23_u12 ) 0.0, 1.0;
    ( 0, u44_u34_u23_u13 ) 0.0, 1.0;
    ( 0, u44_u34_u23_u14 ) 0.0, 1.0;
    ( 0, u44_u34_u24_u11 ) 0.0, 1.0;
    ( 0, u44_u34_u24_u12 ) 0.0, 1.0;
    ( 0, u44_u34_u24_u13 ) 0.0, 1.0;
    ( 0, u44_u34_u24_u14 ) 0.0, 1.0;
    ( 1, u41_u31_u21_u11 ) 1.0, 0.0;
    ( 1, u41_u31_u21_u12 ) 1.0, 0.0;
    ( 1, u41_u31_u21_u13 ) 1.0, 0.0;
    ( 1, u41_u31_u21_u14 ) 1.0, 0.0;
    ( 1, u41_u31_u22_u11 ) 0.0, 1.0;
    ( 1, u41_u31_u22_u12 ) 0.0, 1.0;
    ( 1, u41_u31_u22_u13 ) 0.0, 1.0;
    ( 1, u41_u31_u22_u14 ) 0.0, 1.0;
    ( 1, u41_u31_u23_u11 ) 1.0, 0.0;
    ( 1, u41_u31_u23_u12 ) 1.0, 0.0;
    ( 1, u41_u31_u23_u13 ) 1.0, 0.0;
    ( 1, u41_u31_u23_u14 ) 1.0, 0.0;
    ( 1, u41_u31_u24_u11 ) 0.0, 1.0;
    ( 1, u41_u31_u24_u12 ) 0.0, 1.0;
    ( 1, u41_u31_u24_u13 ) 0.0, 1.0;
    ( 1, u41_u31_u24_u14 ) 0.0, 1.0;
    ( 1, u41_u32_u21_u11 ) 1.0, 0.0;
    ( 1, u41_u32_u21_u12 ) 1.0, 0.0;
    ( 1, u41_u32_u21_u13 ) 1.0, 0.0;
    ( 1, u41_u32_u21_u14 ) 1.0, 0.0;
    ( 1, u41_u32_u22_u11 ) 0.0, 1.0;
    ( 1, u41_u32_u22_u12 ) 0.0, 1.0;
    ( 1, u41_u32_u22_u13 ) 0.0, 1.0;
    ( 1, u41_u32_u22_u14 ) 0.0, 1.0;
    ( 1, u41_u32_u23_u11 ) 1.0, 0.0;
    ( 1, u41_u32_u23_u12 ) 1.0, 0.0;
    ( 1, u41_u32_u23_u13 ) 1.0, 0.0;
    ( 1, u41_u32_u23_u14 ) 1.0, 0.0;
    ( 1, u41_u32_u24_u11 ) 0.0, 1.0;
    ( 1, u41_u32_u24_u12 ) 0.0, 1.0;
    ( 1, u41_u32_u24_u13 ) 0.0, 1.0;
    ( 1, u41_u32_u24_u14 ) 0.0, 1.0;
    ( 1, u41_u33_u21_u11 ) 1.0, 0.0;
    ( 1, u41_u33_u21_u12 ) 1.0, 0.0;
    ( 1, u41_u33_u21_u13 ) 1.0, 0.0;
    ( 1, u41_u33_u21_u14 ) 1.0, 0.0;
    ( 1, u41_u33_u22_u11 ) 0.0, 1.0;
    ( 1, u41_u33_u22_u12 ) 0.0, 1.0;
    ( 1, u41_u33_u22_u13 ) 0.0, 1.0;
    ( 1, u41_u33_u22_u14 ) 0.0, 1.0;
    ( 1, u41_u33_u23_u11 ) 1.0, 0.0;
    ( 1, u41_u33_u23_u12 ) 1.0, 0.0;
    ( 1, u41_u33_u23_u13 ) 1.0, 0.0;
    ( 1, u41_u33_u23_u14 ) 1.0, 0.0;
    ( 1, u41_u33_u24_u11 ) 0.0, 1.0;
    ( 1, u41_u33_u24_u12 ) 0.0, 1.0;
    ( 1, u41_u33_u24_u13 ) 0.0, 1.0;
    ( 1, u41_u33_u24_u14 ) 0.0, 1.0;
    ( 1, u41_u34_u21_u11 ) 1.0, 0.0;
    ( 1, u41_u34_u21_u12 ) 1.0, 0.0;
    ( 1, u41_u34_u21_u13 ) 1.0, 0.0;
    ( 1, u41_u34_u21_u14 ) 1.0, 0.0;
    ( 1, u41_u34_u22_u11 ) 0.0, 1.0;
    ( 1, u41_u34_u22_u12 ) 0.0, 1.0;
    ( 1, u41_u34_u22_u13 ) 0.0, 1.0;
    ( 1, u41_u34_u22_u14 ) 0.0, 1.0;
    ( 1, u41_u34_u23_u11 ) 1.0, 0.0;
    ( 1, u41_u34_u23_u12 ) 1.0, 0.0;
    ( 1, u41_u34_u23_u13 ) 1.0, 0.0;
    ( 1, u41_u34_u23_u14 ) 1.0, 0.0;
    ( 1, u41_u34_u24_u11 ) 0.0, 1.0;
    ( 1, u41_u34_u24_u12 ) 0.0, 1.0;
    ( 1, u41_u34_u24_u13 ) 0.0, 1.0;
    ( 1, u41_u34_u24_u14 ) 0.0, 1.0;
    ( 1, u42_u31_u21_u11 ) 1.0, 0.0;
    ( 1, u42_u31_u21_u12 ) 1.0, 0.0;
    ( 1, u42_u31_u21_u13 ) 1.0, 0.0;
    ( 1, u42_u31_u21_u14 ) 1.0, 0.0;
    ( 1, u42_u31_u22_u11 ) 0.0, 1.0;
    ( 1, u42_u31_u22_u12 ) 0.0, 1.0;
    ( 1, u42_u31_u22_u13 ) 0.0, 1.0;
    ( 1, u42_u31_u22_u14 ) 0.0, 1.0;
    ( 1, u42_u31_u23_u11 ) 1.0, 0.0;
    ( 1, u42_u31_u23_u12 ) 1.0, 0.0;
    ( 1, u42_u31_u23_u13 ) 1.0, 0.0;
    ( 1, u42_u31_u23_u14 ) 1.0, 0.0;
    ( 1, u42_u31_u24_u11 ) 0.0, 1.0;
    ( 1, u42_u31_u24_u12 ) 0.0, 1.0;
    ( 1, u42_u31_u24_u13 ) 0.0, 1.0;
    ( 1, u42_u31_u24_u14 ) 0.0, 1.0;
    ( 1, u42_u32_u21_u11 ) 1.0, 0.0;
    ( 1, u42_u32_u21_u12 ) 1.0, 0.0;
    ( 1, u42_u32_u21_u13 ) 1.0, 0.0;
    ( 1, u42_u32_u21_u14 ) 1.0, 0.0;
    ( 1, u42_u32_u22_u11 ) 0.0, 1.0;
    ( 1, u42_u32_u22_u12 ) 0.0, 1.0;
    ( 1, u42_u32_u22_u13 ) 0.0, 1.0;
    ( 1, u42_u32_u22_u14 ) 0.0, 1.0;
    ( 1, u42_u32_u23_u11 ) 1.0, 0.0;
    ( 1, u42_u32_u23_u12 ) 1.0, 0.0;
    ( 1, u42_u32_u23_u13 ) 1.0, 0.0;
    ( 1, u42_u32_u23_u14 ) 1.0, 0.0;
    ( 1, u42_u32_u24_u11 ) 0.0, 1.0;
    ( 1, u42_u32_u24_u12 ) 0.0, 1.0;
    ( 1, u42_u32_u24_u13 ) 0.0, 1.0;
    ( 1, u42_u32_u24_u14 ) 0.0, 1.0;
    ( 1, u42_u33_u21_u11 ) 1.0, 0.0;
    ( 1, u42_u33_u21_u12 ) 1.0, 0.0;
    ( 1, u42_u33_u21_u13 ) 1.0, 0.0;
    ( 1, u42_u33_u21_u14 ) 1.0, 0.0;
    ( 1, u42_u33_u22_u11 ) 0.0, 1.0;
    ( 1, u42_u33_u22_u12 ) 0.0, 1.0;
    ( 1, u42_u33_u22_u13 ) 0.0, 1.0;
    ( 1, u42_u33_u22_u14 ) 0.0, 1.0;
    ( 1, u42_u33_u23_u11 ) 1.0, 0.0;
    ( 1, u42_u33_u23_u12 ) 1.0, 0.0;
    ( 1, u42_u33_u23_u13 ) 1.0, 0.0;
    ( 1, u42_u33_u23_u14 ) 1.0, 0.0;
    ( 1, u42_u33_u24_u11 ) 0.0, 1.0;
    ( 1, u42_u33_u24_u12 ) 0.0, 1.0;
    ( 1, u42_u33_u24_u13 ) 0.0, 1.0;
    ( 1, u42_u33_u24_u14 ) 0.0, 1.0;
    ( 1, u42_u34_u21_u11 ) 1.0, 0.0;
    ( 1, u42_u34_u21_u12 ) 1.0, 0.0;
    ( 1, u42_u34_u21_u13 ) 1.0, 0.0;
    ( 1, u42_u34_u21_u14 ) 1.0, 0.0;
    ( 1, u42_u34_u22_u11 ) 0.0, 1.0;
    ( 1, u42_u34_u22_u12 ) 0.0, 1.0;
    ( 1, u42_u34_u22_u13 ) 0.0, 1.0;
    ( 1, u42_u34_u22_u14 ) 0.0, 1.0;
    ( 1, u42_u34_u23_u11 ) 1.0, 0.0;
    ( 1, u42_u34_u23_u12 ) 1.0, 0.0;
    ( 1, u42_u34_u23_u13 ) 1.0, 0.0;
    ( 1, u42_u34_u23_u14 ) 1.0, 0.0;
    ( 1, u42_u34_u24_u11 ) 0.0, 1.0;
    ( 1, u42_u34_u24_u12 ) 0.0, 1.0;
    ( 1, u42_u34_u24_u13 ) 0.0, 1.0;
    ( 1, u42_u34_u24_u14 ) 0.0, 1.0;
    ( 1, u43_u31_u21_u11 ) 1.0, 0.0;
    ( 1, u43_u31_u21_u12 ) 1.0, 0.0;
    ( 1, u43_u31_u21_u13 ) 1.0, 0.0;
    ( 1, u43_u31_u21_u14 ) 1.0, 0.0;
    ( 1, u43_u31_u22_u11 ) 0.0, 1.0;
    ( 1, u43_u31_u22_u12 ) 0.0, 1.0;
    ( 1, u43_u31_u22_u13 ) 0.0, 1.0;
    ( 1, u43_u31_u22_u14 ) 0.0, 1.0;
    ( 1, u43_u31_u23_u11 ) 1.0, 0.0;
    ( 1, u43_u31_u23_u12 ) 1.0, 0.0;
    ( 1, u43_u31_u23_u13 ) 1.0, 0.0;
    ( 1, u43_u31_u23_u14 ) 1.0, 0.0;
    ( 1, u43_u31_u24_u11 ) 0.0, 1.0;
    ( 1, u43_u31_u24_u12 ) 0.0, 1.0;
    ( 1, u43_u31_u24_u13 ) 0.0, 1.0;
    ( 1, u43_u31_u24_u14 ) 0.0, 1.0;
    ( 1, u43_u32_u21_u11 ) 1.0, 0.0;
    ( 1, u43_u32_u21_u12 ) 1.0, 0.0;
    ( 1, u43_u32_u21_u13 ) 1.0, 0.0;
    ( 1, u43_u32_u21_u14 ) 1.0, 0.0;
    ( 1, u43_u32_u22_u11 ) 0.0, 1.0;
    ( 1, u43_u32_u22_u12 ) 0.0, 1.0;
    ( 1, u43_u32_u22_u13 ) 0.0, 1.0;
    ( 1, u43_u32_u22_u14 ) 0.0, 1.0;
    ( 1, u43_u32_u23_u11 ) 1.0, 0.0;
    ( 1, u43_u32_u23_u12 ) 1.0, 0.0;
    ( 1, u43_u32_u23_u13 ) 1.0, 0.0;
    ( 1, u43_u32_u23_u14 ) 1.0, 0.0;
    ( 1, u43_u32_u24_u11 ) 0.0, 1.0;
    ( 1, u43_u32_u24_u12 ) 0.0, 1.0;
    ( 1, u43_u32_u24_u13 ) 0.0, 1.0;
    ( 1, u43_u32_u24_u14 ) 0.0, 1.0;
    ( 1, u43_u33_u21_u11 ) 1.0, 0.0;
    ( 1, u43_u33_u21_u12 ) 1.0, 0.0;
    ( 1, u43_u33_u21_u13 ) 1.0, 0.0;
    ( 1, u43_u33_u21_u14 ) 1.0, 0.0;
    ( 1, u43_u33_u22_u11 ) 0.0, 1.0;
    ( 1, u43_u33_u22_u12 ) 0.0, 1.0;
    ( 1, u43_u33_u22_u13 ) 0.0, 1.0;
    ( 1, u43_u33_u22_u14 ) 0.0, 1.0;
    ( 1, u43_u33_u23_u11 ) 1.0, 0.0;
    ( 1, u43_u33_u23_u12 ) 1.0, 0.0;
    ( 1, u43_u33_u23_u13 ) 1.0, 0.0;
    ( 1, u43_u33_u23_u14 ) 1.0, 0.0;
    ( 1, u43_u33_u24_u11 ) 0.0, 1.0;
    ( 1, u43_u33_u24_u12 ) 0.0, 1.0;
    ( 1, u43_u33_u24_u13 ) 0.0, 1.0;
    ( 1, u43_u33_u24_u14 ) 0.0, 1.0;
    ( 1, u43_u34_u21_u11 ) 1.0, 0.0;
    ( 1, u43_u34_u21_u12 ) 1.0, 0.0;
    ( 1, u43_u34_u21_u13 ) 1.0, 0.0;
    ( 1, u43_u34_u21_u14 ) 1.0, 0.0;
    ( 1, u43_u34_u22_u11 ) 0.0, 1.0;
    ( 1, u43_u34_u22_u12 ) 0.0, 1.0;
    ( 1, u43_u34_u22_u13 ) 0.0, 1.0;
    ( 1, u43_u34_u22_u14 ) 0.0, 1.0;
    ( 1, u43_u34_u23_u11 ) 1.0, 0.0;
    ( 1, u43_u34_u23_u12 ) 1.0, 0.0;
    ( 1, u43_u34_u23_u13 ) 1.0, 0.0;
    ( 1, u43_u34_u23_u14 ) 1.0, 0.0;
    ( 1, u43_u34_u24_u11 ) 0.0, 1.0;
    ( 1, u43_u34_u24_u12 ) 0.0, 1.0;
    ( 1, u43_u34_u24_u13 ) 0.0, 1.0;
    ( 1, u43_u34_u24_u14 ) 0.0, 1.0;
    ( 1, u44_u31_u21_u11 ) 1.0, 0.0;
    ( 1, u44_u31_u21_u12 ) 1.0, 0.0;
    ( 1, u44_u31_u21_u13 ) 1.0, 0.0;
    ( 1, u44_u31_u21_u14 ) 1.0, 0.0;
    ( 1, u44_u31_u22_u11 ) 0.0, 1.0;
    ( 1, u44_u31_u22_u12 ) 0.0, 1.0;
    ( 1, u44_u31_u22_u13 ) 0.0, 1.0;
    ( 1, u44_u31_u22_u14 ) 0.0, 1.0;
    ( 1, u44_u31_u23_u11 ) 1.0, 0.0;
    ( 1, u44_u31_u23_u12 ) 1.0, 0.0;
    ( 1, u44_u31_u23_u13 ) 1.0, 0.0;
    ( 1, u44_u31_u23_u14 ) 1.0, 0.0;
    ( 1, u44_u31_u24_u11 ) 0.0, 1.0;
    ( 1, u44_u31_u24_u12 ) 0.0, 1.0;
    ( 1, u44_u31_u24_u13 ) 0.0, 1.0;
    ( 1, u44_u31_u24_u14 ) 0.0, 1.0;
    ( 1, u44_u32_u21_u11 ) 1.0, 0.0;
    ( 1, u44_u32_u21_u12 ) 1.0, 0.0;
    ( 1, u44_u32_u21_u13 ) 1.0, 0.0;
    ( 1, u44_u32_u21_u14 ) 1.0, 0.0;
    ( 1, u44_u32_u22_u11 ) 0.0, 1.0;
    ( 1, u44_u32_u22_u12 ) 0.0, 1.0;
    ( 1, u44_u32_u22_u13 ) 0.0, 1.0;
    ( 1, u44_u32_u22_u14 ) 0.0, 1.0;
    ( 1, u44_u32_u23_u11 ) 1.0, 0.0;
    ( 1, u44_u32_u23_u12 ) 1.0, 0.0;
    ( 1, u44_u32_u23_u13 ) 1.0, 0.0;
    ( 1, u44_u32_u23_u14 ) 1.0, 0.0;
    ( 1, u44_u32_u24_u11 ) 0.0, 1.0;
    ( 1, u44_u32_u24_u12 ) 0.0, 1.0;
    ( 1, u44_u32_u24_u13 ) 0.0, 1.0;
    ( 1, u44_u32_u24_u14 ) 0.0, 1.0;
    ( 1, u44_u33_u21_u11 ) 1.0, 0.0;
    ( 1, u44_u33_u21_u12 ) 1.0, 0.0;
    ( 1, u44_u33_u21_u13 ) 1.0, 0.0;
    ( 1, u44_u33_u21_u14 ) 1.0, 0.0;
    ( 1, u44_u33_u22_u11 ) 0.0, 1.0;
    ( 1, u44_u33_u22_u12 ) 0.0, 1.0;
    ( 1, u44_u33_u22_u13 ) 0.0, 1.0;
    ( 1, u44_u33_u22_u14 ) 0.0, 1.0;
    ( 1, u44_u33_u23_u11 ) 1.0, 0.0;
    ( 1, u44_u33_u23_u12 ) 1.0, 0.0;
    ( 1, u44_u33_u23_u13 ) 1.0, 0.0;
    ( 1, u44_u33_u23_u14 ) 1.0, 0.0;
    ( 1, u44_u33_u24_u11 ) 0.0, 1.0;
    ( 1, u44_u33_u24_u12 ) 0.0, 1.0;
    ( 1, u44_u33_u24_u13 ) 0.0, 1.0;
    ( 1, u44_u33_u24_u14 ) 0.0, 1.0;
    ( 1, u44_u34_u21_u11 ) 1.0, 0.0;
    ( 1, u44_u34_u21_u12 ) 1.0, 0.0;
    ( 1, u44_u34_u21_u13 ) 1.0, 0.0;
    ( 1, u44_u34_u21_u14 ) 1.0, 0.0;
    ( 1, u44_u34_u22_u11 ) 0.0, 1.0;
    ( 1, u44_u34_u22_u12 ) 0.0, 1.0;
    ( 1, u44_u34_u22_u13 ) 0.0, 1.0;
    ( 1, u44_u34_u22_u14 ) 0.0, 1.0;
    ( 1, u44_u34_u23_u11 ) 1.0, 0.0;
    ( 1, u44_u34_u23_u12 ) 1.0, 0.0;
    ( 1, u44_u34_u23_u13 ) 1.0, 0.0;
    ( 1, u44_u34_u23_u14 ) 1.0, 0.0;
    ( 1, u44_u34_u24_u11 ) 0.0, 1.0;
    ( 1, u44_u34_u24_u12 ) 0.0, 1.0;
    ( 1, u44_u34_u24_u13 ) 0.0, 1.0;
    ( 1, u44_u34_u24_u14 ) 0.0, 1.0;

}
probability ( Y3 | Y2, U1U2U3U4 ) {
    ( 0, u41_u31_u21_u11 ) 1.0, 0.0;
    ( 0, u41_u31_u21_u12 ) 1.0, 0.0;
    ( 0, u41_u31_u21_u13 ) 1.0, 0.0;
    ( 0, u41_u31_u21_u14 ) 1.0, 0.0;
    ( 0, u41_u31_u22_u11 ) 1.0, 0.0;
    ( 0, u41_u31_u22_u12 ) 1.0, 0.0;
    ( 0, u41_u31_u22_u13 ) 1.0, 0.0;
    ( 0, u41_u31_u22_u14 ) 1.0, 0.0;
    ( 0, u41_u31_u23_u11 ) 1.0, 0.0;
    ( 0, u41_u31_u23_u12 ) 1.0, 0.0;
    ( 0, u41_u31_u23_u13 ) 1.0, 0.0;
    ( 0, u41_u31_u23_u14 ) 1.0, 0.0;
    ( 0, u41_u31_u24_u11 ) 1.0, 0.0;
    ( 0, u41_u31_u24_u12 ) 1.0, 0.0;
    ( 0, u41_u31_u24_u13 ) 1.0, 0.0;
    ( 0, u41_u31_u24_u14 ) 1.0, 0.0;
    ( 0, u41_u32_u21_u11 ) 1.0, 0.0;
    ( 0, u41_u32_u21_u12 ) 1.0, 0.0;
    ( 0, u41_u32_u21_u13 ) 1.0, 0.0;
    ( 0, u41_u32_u21_u14 ) 1.0, 0.0;
    ( 0, u41_u32_u22_u11 ) 1.0, 0.0;
    ( 0, u41_u32_u22_u12 ) 1.0, 0.0;
    ( 0, u41_u32_u22_u13 ) 1.0, 0.0;
    ( 0, u41_u32_u22_u14 ) 1.0, 0.0;
    ( 0, u41_u32_u23_u11 ) 1.0, 0.0;
    ( 0, u41_u32_u23_u12 ) 1.0, 0.0;
    ( 0, u41_u32_u23_u13 ) 1.0, 0.0;
    ( 0, u41_u32_u23_u14 ) 1.0, 0.0;
    ( 0, u41_u32_u24_u11 ) 1.0, 0.0;
    ( 0, u41_u32_u24_u12 ) 1.0, 0.0;
    ( 0, u41_u32_u24_u13 ) 1.0, 0.0;
    ( 0, u41_u32_u24_u14 ) 1.0, 0.0;
    ( 0, u41_u33_u21_u11 ) 0.0, 1.0;
    ( 0, u41_u33_u21_u12 ) 0.0, 1.0;
    ( 0, u41_u33_u21_u13 ) 0.0, 1.0;
    ( 0, u41_u33_u21_u14 ) 0.0, 1.0;
    ( 0, u41_u33_u22_u11 ) 0.0, 1.0;
    ( 0, u41_u33_u22_u12 ) 0.0, 1.0;
    ( 0, u41_u33_u22_u13 ) 0.0, 1.0;
    ( 0, u41_u33_u22_u14 ) 0.0, 1.0;
    ( 0, u41_u33_u23_u11 ) 0.0, 1.0;
    ( 0, u41_u33_u23_u12 ) 0.0, 1.0;
    ( 0, u41_u33_u23_u13 ) 0.0, 1.0;
    ( 0, u41_u33_u23_u14 ) 0.0, 1.0;
    ( 0, u41_u33_u24_u11 ) 0.0, 1.0;
    ( 0, u41_u33_u24_u12 ) 0.0, 1.0;
    ( 0, u41_u33_u24_u13 ) 0.0, 1.0;
    ( 0, u41_u33_u24_u14 ) 0.0, 1.0;
    ( 0, u41_u34_u21_u11 ) 0.0, 1.0;
    ( 0, u41_u34_u21_u12 ) 0.0, 1.0;
    ( 0, u41_u34_u21_u13 ) 0.0, 1.0;
    ( 0, u41_u34_u21_u14 ) 0.0, 1.0;
    ( 0, u41_u34_u22_u11 ) 0.0, 1.0;
    ( 0, u41_u34_u22_u12 ) 0.0, 1.0;
    ( 0, u41_u34_u22_u13 ) 0.0, 1.0;
    ( 0, u41_u34_u22_u14 ) 0.0, 1.0;
    ( 0, u41_u34_u23_u11 ) 0.0, 1.0;
    ( 0, u41_u34_u23_u12 ) 0.0, 1.0;
    ( 0, u41_u34_u23_u13 ) 0.0, 1.0;
    ( 0, u41_u34_u23_u14 ) 0.0, 1.0;
    ( 0, u41_u34_u24_u11 ) 0.0, 1.0;
    ( 0, u41_u34_u24_u12 ) 0.0, 1.0;
    ( 0, u41_u34_u24_u13 ) 0.0, 1.0;
    ( 0, u41_u34_u24_u14 ) 0.0, 1.0;
    ( 0, u42_u31_u21_u11 ) 1.0, 0.0;
    ( 0, u42_u31_u21_u12 ) 1.0, 0.0;
    ( 0, u42_u31_u21_u13 ) 1.0, 0.0;
    ( 0, u42_u31_u21_u14 ) 1.0, 0.0;
    ( 0, u42_u31_u22_u11 ) 1.0, 0.0;
    ( 0, u42_u31_u22_u12 ) 1.0, 0.0;
    ( 0, u42_u31_u22_u13 ) 1.0, 0.0;
    ( 0, u42_u31_u22_u14 ) 1.0, 0.0;
    ( 0, u42_u31_u23_u11 ) 1.0, 0.0;
    ( 0, u42_u31_u23_u12 ) 1.0, 0.0;
    ( 0, u42_u31_u23_u13 ) 1.0, 0.0;
    ( 0, u42_u31_u23_u14 ) 1.0, 0.0;
    ( 0, u42_u31_u24_u11 ) 1.0, 0.0;
    ( 0, u42_u31_u24_u12 ) 1.0, 0.0;
    ( 0, u42_u31_u24_u13 ) 1.0, 0.0;
    ( 0, u42_u31_u24_u14 ) 1.0, 0.0;
    ( 0, u42_u32_u21_u11 ) 1.0, 0.0;
    ( 0, u42_u32_u21_u12 ) 1.0, 0.0;
    ( 0, u42_u32_u21_u13 ) 1.0, 0.0;
    ( 0, u42_u32_u21_u14 ) 1.0, 0.0;
    ( 0, u42_u32_u22_u11 ) 1.0, 0.0;
    ( 0, u42_u32_u22_u12 ) 1.0, 0.0;
    ( 0, u42_u32_u22_u13 ) 1.0, 0.0;
    ( 0, u42_u32_u22_u14 ) 1.0, 0.0;
    ( 0, u42_u32_u23_u11 ) 1.0, 0.0;
    ( 0, u42_u32_u23_u12 ) 1.0, 0.0;
    ( 0, u42_u32_u23_u13 ) 1.0, 0.0;
    ( 0, u42_u32_u23_u14 ) 1.0, 0.0;
    ( 0, u42_u32_u24_u11 ) 1.0, 0.0;
    ( 0, u42_u32_u24_u12 ) 1.0, 0.0;
    ( 0, u42_u32_u24_u13 ) 1.0, 0.0;
    ( 0, u42_u32_u24_u14 ) 1.0, 0.0;
    ( 0, u42_u33_u21_u11 ) 0.0, 1.0;
    ( 0, u42_u33_u21_u12 ) 0.0, 1.0;
    ( 0, u42_u33_u21_u13 ) 0.0, 1.0;
    ( 0, u42_u33_u21_u14 ) 0.0, 1.0;
    ( 0, u42_u33_u22_u11 ) 0.0, 1.0;
    ( 0, u42_u33_u22_u12 ) 0.0, 1.0;
    ( 0, u42_u33_u22_u13 ) 0.0, 1.0;
    ( 0, u42_u33_u22_u14 ) 0.0, 1.0;
    ( 0, u42_u33_u23_u11 ) 0.0, 1.0;
    ( 0, u42_u33_u23_u12 ) 0.0, 1.0;
    ( 0, u42_u33_u23_u13 ) 0.0, 1.0;
    ( 0, u42_u33_u23_u14 ) 0.0, 1.0;
    ( 0, u42_u33_u24_u11 ) 0.0, 1.0;
    ( 0, u42_u33_u24_u12 ) 0.0, 1.0;
    ( 0, u42_u33_u24_u13 ) 0.0, 1.0;
    ( 0, u42_u33_u24_u14 ) 0.0, 1.0;
    ( 0, u42_u34_u21_u11 ) 0.0, 1.0;
    ( 0, u42_u34_u21_u12 ) 0.0, 1.0;
    ( 0, u42_u34_u21_u13 ) 0.0, 1.0;
    ( 0, u42_u34_u21_u14 ) 0.0, 1.0;
    ( 0, u42_u34_u22_u11 ) 0.0, 1.0;
    ( 0, u42_u34_u22_u12 ) 0.0, 1.0;
    ( 0, u42_u34_u22_u13 ) 0.0, 1.0;
    ( 0, u42_u34_u22_u14 ) 0.0, 1.0;
    ( 0, u42_u34_u23_u11 ) 0.0, 1.0;
    ( 0, u42_u34_u23_u12 ) 0.0, 1.0;
    ( 0, u42_u34_u23_u13 ) 0.0, 1.0;
    ( 0, u42_u34_u23_u14 ) 0.0, 1.0;
    ( 0, u42_u34_u24_u11 ) 0.0, 1.0;
    ( 0, u42_u34_u24_u12 ) 0.0, 1.0;
    ( 0, u42_u34_u24_u13 ) 0.0, 1.0;
    ( 0, u42_u34_u24_u14 ) 0.0, 1.0;
    ( 0, u43_u31_u21_u11 ) 1.0, 0.0;
    ( 0, u43_u31_u21_u12 ) 1.0, 0.0;
    ( 0, u43_u31_u21_u13 ) 1.0, 0.0;
    ( 0, u43_u31_u21_u14 ) 1.0, 0.0;
    ( 0, u43_u31_u22_u11 ) 1.0, 0.0;
    ( 0, u43_u31_u22_u12 ) 1.0, 0.0;
    ( 0, u43_u31_u22_u13 ) 1.0, 0.0;
    ( 0, u43_u31_u22_u14 ) 1.0, 0.0;
    ( 0, u43_u31_u23_u11 ) 1.0, 0.0;
    ( 0, u43_u31_u23_u12 ) 1.0, 0.0;
    ( 0, u43_u31_u23_u13 ) 1.0, 0.0;
    ( 0, u43_u31_u23_u14 ) 1.0, 0.0;
    ( 0, u43_u31_u24_u11 ) 1.0, 0.0;
    ( 0, u43_u31_u24_u12 ) 1.0, 0.0;
    ( 0, u43_u31_u24_u13 ) 1.0, 0.0;
    ( 0, u43_u31_u24_u14 ) 1.0, 0.0;
    ( 0, u43_u32_u21_u11 ) 1.0, 0.0;
    ( 0, u43_u32_u21_u12 ) 1.0, 0.0;
    ( 0, u43_u32_u21_u13 ) 1.0, 0.0;
    ( 0, u43_u32_u21_u14 ) 1.0, 0.0;
    ( 0, u43_u32_u22_u11 ) 1.0, 0.0;
    ( 0, u43_u32_u22_u12 ) 1.0, 0.0;
    ( 0, u43_u32_u22_u13 ) 1.0, 0.0;
    ( 0, u43_u32_u22_u14 ) 1.0, 0.0;
    ( 0, u43_u32_u23_u11 ) 1.0, 0.0;
    ( 0, u43_u32_u23_u12 ) 1.0, 0.0;
    ( 0, u43_u32_u23_u13 ) 1.0, 0.0;
    ( 0, u43_u32_u23_u14 ) 1.0, 0.0;
    ( 0, u43_u32_u24_u11 ) 1.0, 0.0;
    ( 0, u43_u32_u24_u12 ) 1.0, 0.0;
    ( 0, u43_u32_u24_u13 ) 1.0, 0.0;
    ( 0, u43_u32_u24_u14 ) 1.0, 0.0;
    ( 0, u43_u33_u21_u11 ) 0.0, 1.0;
    ( 0, u43_u33_u21_u12 ) 0.0, 1.0;
    ( 0, u43_u33_u21_u13 ) 0.0, 1.0;
    ( 0, u43_u33_u21_u14 ) 0.0, 1.0;
    ( 0, u43_u33_u22_u11 ) 0.0, 1.0;
    ( 0, u43_u33_u22_u12 ) 0.0, 1.0;
    ( 0, u43_u33_u22_u13 ) 0.0, 1.0;
    ( 0, u43_u33_u22_u14 ) 0.0, 1.0;
    ( 0, u43_u33_u23_u11 ) 0.0, 1.0;
    ( 0, u43_u33_u23_u12 ) 0.0, 1.0;
    ( 0, u43_u33_u23_u13 ) 0.0, 1.0;
    ( 0, u43_u33_u23_u14 ) 0.0, 1.0;
    ( 0, u43_u33_u24_u11 ) 0.0, 1.0;
    ( 0, u43_u33_u24_u12 ) 0.0, 1.0;
    ( 0, u43_u33_u24_u13 ) 0.0, 1.0;
    ( 0, u43_u33_u24_u14 ) 0.0, 1.0;
    ( 0, u43_u34_u21_u11 ) 0.0, 1.0;
    ( 0, u43_u34_u21_u12 ) 0.0, 1.0;
    ( 0, u43_u34_u21_u13 ) 0.0, 1.0;
    ( 0, u43_u34_u21_u14 ) 0.0, 1.0;
    ( 0, u43_u34_u22_u11 ) 0.0, 1.0;
    ( 0, u43_u34_u22_u12 ) 0.0, 1.0;
    ( 0, u43_u34_u22_u13 ) 0.0, 1.0;
    ( 0, u43_u34_u22_u14 ) 0.0, 1.0;
    ( 0, u43_u34_u23_u11 ) 0.0, 1.0;
    ( 0, u43_u34_u23_u12 ) 0.0, 1.0;
    ( 0, u43_u34_u23_u13 ) 0.0, 1.0;
    ( 0, u43_u34_u23_u14 ) 0.0, 1.0;
    ( 0, u43_u34_u24_u11 ) 0.0, 1.0;
    ( 0, u43_u34_u24_u12 ) 0.0, 1.0;
    ( 0, u43_u34_u24_u13 ) 0.0, 1.0;
    ( 0, u43_u34_u24_u14 ) 0.0, 1.0;
    ( 0, u44_u31_u21_u11 ) 1.0, 0.0;
    ( 0, u44_u31_u21_u12 ) 1.0, 0.0;
    ( 0, u44_u31_u21_u13 ) 1.0, 0.0;
    ( 0, u44_u31_u21_u14 ) 1.0, 0.0;
    ( 0, u44_u31_u22_u11 ) 1.0, 0.0;
    ( 0, u44_u31_u22_u12 ) 1.0, 0.0;
    ( 0, u44_u31_u22_u13 ) 1.0, 0.0;
    ( 0, u44_u31_u22_u14 ) 1.0, 0.0;
    ( 0, u44_u31_u23_u11 ) 1.0, 0.0;
    ( 0, u44_u31_u23_u12 ) 1.0, 0.0;
    ( 0, u44_u31_u23_u13 ) 1.0, 0.0;
    ( 0, u44_u31_u23_u14 ) 1.0, 0.0;
    ( 0, u44_u31_u24_u11 ) 1.0, 0.0;
    ( 0, u44_u31_u24_u12 ) 1.0, 0.0;
    ( 0, u44_u31_u24_u13 ) 1.0, 0.0;
    ( 0, u44_u31_u24_u14 ) 1.0, 0.0;
    ( 0, u44_u32_u21_u11 ) 1.0, 0.0;
    ( 0, u44_u32_u21_u12 ) 1.0, 0.0;
    ( 0, u44_u32_u21_u13 ) 1.0, 0.0;
    ( 0, u44_u32_u21_u14 ) 1.0, 0.0;
    ( 0, u44_u32_u22_u11 ) 1.0, 0.0;
    ( 0, u44_u32_u22_u12 ) 1.0, 0.0;
    ( 0, u44_u32_u22_u13 ) 1.0, 0.0;
    ( 0, u44_u32_u22_u14 ) 1.0, 0.0;
    ( 0, u44_u32_u23_u11 ) 1.0, 0.0;
    ( 0, u44_u32_u23_u12 ) 1.0, 0.0;
    ( 0, u44_u32_u23_u13 ) 1.0, 0.0;
    ( 0, u44_u32_u23_u14 ) 1.0, 0.0;
    ( 0, u44_u32_u24_u11 ) 1.0, 0.0;
    ( 0, u44_u32_u24_u12 ) 1.0, 0.0;
    ( 0, u44_u32_u24_u13 ) 1.0, 0.0;
    ( 0, u44_u32_u24_u14 ) 1.0, 0.0;
    ( 0, u44_u33_u21_u11 ) 0.0, 1.0;
    ( 0, u44_u33_u21_u12 ) 0.0, 1.0;
    ( 0, u44_u33_u21_u13 ) 0.0, 1.0;
    ( 0, u44_u33_u21_u14 ) 0.0, 1.0;
    ( 0, u44_u33_u22_u11 ) 0.0, 1.0;
    ( 0, u44_u33_u22_u12 ) 0.0, 1.0;
    ( 0, u44_u33_u22_u13 ) 0.0, 1.0;
    ( 0, u44_u33_u22_u14 ) 0.0, 1.0;
    ( 0, u44_u33_u23_u11 ) 0.0, 1.0;
    ( 0, u44_u33_u23_u12 ) 0.0, 1.0;
    ( 0, u44_u33_u23_u13 ) 0.0, 1.0;
    ( 0, u44_u33_u23_u14 ) 0.0, 1.0;
    ( 0, u44_u33_u24_u11 ) 0.0, 1.0;
    ( 0, u44_u33_u24_u12 ) 0.0, 1.0;
    ( 0, u44_u33_u24_u13 ) 0.0, 1.0;
    ( 0, u44_u33_u24_u14 ) 0.0, 1.0;
    ( 0, u44_u34_u21_u11 ) 0.0, 1.0;
    ( 0, u44_u34_u21_u12 ) 0.0, 1.0;
    ( 0, u44_u34_u21_u13 ) 0.0, 1.0;
    ( 0, u44_u34_u21_u14 ) 0.0, 1.0;
    ( 0, u44_u34_u22_u11 ) 0.0, 1.0;
    ( 0, u44_u34_u22_u12 ) 0.0, 1.0;
    ( 0, u44_u34_u22_u13 ) 0.0, 1.0;
    ( 0, u44_u34_u22_u14 ) 0.0, 1.0;
    ( 0, u44_u34_u23_u11 ) 0.0, 1.0;
    ( 0, u44_u34_u23_u12 ) 0.0, 1.0;
    ( 0, u44_u34_u23_u13 ) 0.0, 1.0;
    ( 0, u44_u34_u23_u14 ) 0.0, 1.0;
    ( 0, u44_u34_u24_u11 ) 0.0, 1.0;
    ( 0, u44_u34_u24_u12 ) 0.0, 1.0;
    ( 0, u44_u34_u24_u13 ) 0.0, 1.0;
    ( 0, u44_u34_u24_u14 ) 0.0, 1.0;
    ( 1, u41_u31_u21_u11 ) 1.0, 0.0;
    ( 1, u41_u31_u21_u12 ) 1.0, 0.0;
    ( 1, u41_u31_u21_u13 ) 1.0, 0.0;
    ( 1, u41_u31_u21_u14 ) 1.0, 0.0;
    ( 1, u41_u31_u22_u11 ) 1.0, 0.0;
    ( 1, u41_u31_u22_u12 ) 1.0, 0.0;
    ( 1, u41_u31_u22_u13 ) 1.0, 0.0;
    ( 1, u41_u31_u22_u14 ) 1.0, 0.0;
    ( 1, u41_u31_u23_u11 ) 1.0, 0.0;
    ( 1, u41_u31_u23_u12 ) 1.0, 0.0;
    ( 1, u41_u31_u23_u13 ) 1.0, 0.0;
    ( 1, u41_u31_u23_u14 ) 1.0, 0.0;
    ( 1, u41_u31_u24_u11 ) 1.0, 0.0;
    ( 1, u41_u31_u24_u12 ) 1.0, 0.0;
    ( 1, u41_u31_u24_u13 ) 1.0, 0.0;
    ( 1, u41_u31_u24_u14 ) 1.0, 0.0;
    ( 1, u41_u32_u21_u11 ) 0.0, 1.0;
    ( 1, u41_u32_u21_u12 ) 0.0, 1.0;
    ( 1, u41_u32_u21_u13 ) 0.0, 1.0;
    ( 1, u41_u32_u21_u14 ) 0.0, 1.0;
    ( 1, u41_u32_u22_u11 ) 0.0, 1.0;
    ( 1, u41_u32_u22_u12 ) 0.0, 1.0;
    ( 1, u41_u32_u22_u13 ) 0.0, 1.0;
    ( 1, u41_u32_u22_u14 ) 0.0, 1.0;
    ( 1, u41_u32_u23_u11 ) 0.0, 1.0;
    ( 1, u41_u32_u23_u12 ) 0.0, 1.0;
    ( 1, u41_u32_u23_u13 ) 0.0, 1.0;
    ( 1, u41_u32_u23_u14 ) 0.0, 1.0;
    ( 1, u41_u32_u24_u11 ) 0.0, 1.0;
    ( 1, u41_u32_u24_u12 ) 0.0, 1.0;
    ( 1, u41_u32_u24_u13 ) 0.0, 1.0;
    ( 1, u41_u32_u24_u14 ) 0.0, 1.0;
    ( 1, u41_u33_u21_u11 ) 1.0, 0.0;
    ( 1, u41_u33_u21_u12 ) 1.0, 0.0;
    ( 1, u41_u33_u21_u13 ) 1.0, 0.0;
    ( 1, u41_u33_u21_u14 ) 1.0, 0.0;
    ( 1, u41_u33_u22_u11 ) 1.0, 0.0;
    ( 1, u41_u33_u22_u12 ) 1.0, 0.0;
    ( 1, u41_u33_u22_u13 ) 1.0, 0.0;
    ( 1, u41_u33_u22_u14 ) 1.0, 0.0;
    ( 1, u41_u33_u23_u11 ) 1.0, 0.0;
    ( 1, u41_u33_u23_u12 ) 1.0, 0.0;
    ( 1, u41_u33_u23_u13 ) 1.0, 0.0;
    ( 1, u41_u33_u23_u14 ) 1.0, 0.0;
    ( 1, u41_u33_u24_u11 ) 1.0, 0.0;
    ( 1, u41_u33_u24_u12 ) 1.0, 0.0;
    ( 1, u41_u33_u24_u13 ) 1.0, 0.0;
    ( 1, u41_u33_u24_u14 ) 1.0, 0.0;
    ( 1, u41_u34_u21_u11 ) 0.0, 1.0;
    ( 1, u41_u34_u21_u12 ) 0.0, 1.0;
    ( 1, u41_u34_u21_u13 ) 0.0, 1.0;
    ( 1, u41_u34_u21_u14 ) 0.0, 1.0;
    ( 1, u41_u34_u22_u11 ) 0.0, 1.0;
    ( 1, u41_u34_u22_u12 ) 0.0, 1.0;
    ( 1, u41_u34_u22_u13 ) 0.0, 1.0;
    ( 1, u41_u34_u22_u14 ) 0.0, 1.0;
    ( 1, u41_u34_u23_u11 ) 0.0, 1.0;
    ( 1, u41_u34_u23_u12 ) 0.0, 1.0;
    ( 1, u41_u34_u23_u13 ) 0.0, 1.0;
    ( 1, u41_u34_u23_u14 ) 0.0, 1.0;
    ( 1, u41_u34_u24_u11 ) 0.0, 1.0;
    ( 1, u41_u34_u24_u12 ) 0.0, 1.0;
    ( 1, u41_u34_u24_u13 ) 0.0, 1.0;
    ( 1, u41_u34_u24_u14 ) 0.0, 1.0;
    ( 1, u42_u31_u21_u11 ) 1.0, 0.0;
    ( 1, u42_u31_u21_u12 ) 1.0, 0.0;
    ( 1, u42_u31_u21_u13 ) 1.0, 0.0;
    ( 1, u42_u31_u21_u14 ) 1.0, 0.0;
    ( 1, u42_u31_u22_u11 ) 1.0, 0.0;
    ( 1, u42_u31_u22_u12 ) 1.0, 0.0;
    ( 1, u42_u31_u22_u13 ) 1.0, 0.0;
    ( 1, u42_u31_u22_u14 ) 1.0, 0.0;
    ( 1, u42_u31_u23_u11 ) 1.0, 0.0;
    ( 1, u42_u31_u23_u12 ) 1.0, 0.0;
    ( 1, u42_u31_u23_u13 ) 1.0, 0.0;
    ( 1, u42_u31_u23_u14 ) 1.0, 0.0;
    ( 1, u42_u31_u24_u11 ) 1.0, 0.0;
    ( 1, u42_u31_u24_u12 ) 1.0, 0.0;
    ( 1, u42_u31_u24_u13 ) 1.0, 0.0;
    ( 1, u42_u31_u24_u14 ) 1.0, 0.0;
    ( 1, u42_u32_u21_u11 ) 0.0, 1.0;
    ( 1, u42_u32_u21_u12 ) 0.0, 1.0;
    ( 1, u42_u32_u21_u13 ) 0.0, 1.0;
    ( 1, u42_u32_u21_u14 ) 0.0, 1.0;
    ( 1, u42_u32_u22_u11 ) 0.0, 1.0;
    ( 1, u42_u32_u22_u12 ) 0.0, 1.0;
    ( 1, u42_u32_u22_u13 ) 0.0, 1.0;
    ( 1, u42_u32_u22_u14 ) 0.0, 1.0;
    ( 1, u42_u32_u23_u11 ) 0.0, 1.0;
    ( 1, u42_u32_u23_u12 ) 0.0, 1.0;
    ( 1, u42_u32_u23_u13 ) 0.0, 1.0;
    ( 1, u42_u32_u23_u14 ) 0.0, 1.0;
    ( 1, u42_u32_u24_u11 ) 0.0, 1.0;
    ( 1, u42_u32_u24_u12 ) 0.0, 1.0;
    ( 1, u42_u32_u24_u13 ) 0.0, 1.0;
    ( 1, u42_u32_u24_u14 ) 0.0, 1.0;
    ( 1, u42_u33_u21_u11 ) 1.0, 0.0;
    ( 1, u42_u33_u21_u12 ) 1.0, 0.0;
    ( 1, u42_u33_u21_u13 ) 1.0, 0.0;
    ( 1, u42_u33_u21_u14 ) 1.0, 0.0;
    ( 1, u42_u33_u22_u11 ) 1.0, 0.0;
    ( 1, u42_u33_u22_u12 ) 1.0, 0.0;
    ( 1, u42_u33_u22_u13 ) 1.0, 0.0;
    ( 1, u42_u33_u22_u14 ) 1.0, 0.0;
    ( 1, u42_u33_u23_u11 ) 1.0, 0.0;
    ( 1, u42_u33_u23_u12 ) 1.0, 0.0;
    ( 1, u42_u33_u23_u13 ) 1.0, 0.0;
    ( 1, u42_u33_u23_u14 ) 1.0, 0.0;
    ( 1, u42_u33_u24_u11 ) 1.0, 0.0;
    ( 1, u42_u33_u24_u12 ) 1.0, 0.0;
    ( 1, u42_u33_u24_u13 ) 1.0, 0.0;
    ( 1, u42_u33_u24_u14 ) 1.0, 0.0;
    ( 1, u42_u34_u21_u11 ) 0.0, 1.0;
    ( 1, u42_u34_u21_u12 ) 0.0, 1.0;
    ( 1, u42_u34_u21_u13 ) 0.0, 1.0;
    ( 1, u42_u34_u21_u14 ) 0.0, 1.0;
    ( 1, u42_u34_u22_u11 ) 0.0, 1.0;
    ( 1, u42_u34_u22_u12 ) 0.0, 1.0;
    ( 1, u42_u34_u22_u13 ) 0.0, 1.0;
    ( 1, u42_u34_u22_u14 ) 0.0, 1.0;
    ( 1, u42_u34_u23_u11 ) 0.0, 1.0;
    ( 1, u42_u34_u23_u12 ) 0.0, 1.0;
    ( 1, u42_u34_u23_u13 ) 0.0, 1.0;
    ( 1, u42_u34_u23_u14 ) 0.0, 1.0;
    ( 1, u42_u34_u24_u11 ) 0.0, 1.0;
    ( 1, u42_u34_u24_u12 ) 0.0, 1.0;
    ( 1, u42_u34_u24_u13 ) 0.0, 1.0;
    ( 1, u42_u34_u24_u14 ) 0.0, 1.0;
    ( 1, u43_u31_u21_u11 ) 1.0, 0.0;
    ( 1, u43_u31_u21_u12 ) 1.0, 0.0;
    ( 1, u43_u31_u21_u13 ) 1.0, 0.0;
    ( 1, u43_u31_u21_u14 ) 1.0, 0.0;
    ( 1, u43_u31_u22_u11 ) 1.0, 0.0;
    ( 1, u43_u31_u22_u12 ) 1.0, 0.0;
    ( 1, u43_u31_u22_u13 ) 1.0, 0.0;
    ( 1, u43_u31_u22_u14 ) 1.0, 0.0;
    ( 1, u43_u31_u23_u11 ) 1.0, 0.0;
    ( 1, u43_u31_u23_u12 ) 1.0, 0.0;
    ( 1, u43_u31_u23_u13 ) 1.0, 0.0;
    ( 1, u43_u31_u23_u14 ) 1.0, 0.0;
    ( 1, u43_u31_u24_u11 ) 1.0, 0.0;
    ( 1, u43_u31_u24_u12 ) 1.0, 0.0;
    ( 1, u43_u31_u24_u13 ) 1.0, 0.0;
    ( 1, u43_u31_u24_u14 ) 1.0, 0.0;
    ( 1, u43_u32_u21_u11 ) 0.0, 1.0;
    ( 1, u43_u32_u21_u12 ) 0.0, 1.0;
    ( 1, u43_u32_u21_u13 ) 0.0, 1.0;
    ( 1, u43_u32_u21_u14 ) 0.0, 1.0;
    ( 1, u43_u32_u22_u11 ) 0.0, 1.0;
    ( 1, u43_u32_u22_u12 ) 0.0, 1.0;
    ( 1, u43_u32_u22_u13 ) 0.0, 1.0;
    ( 1, u43_u32_u22_u14 ) 0.0, 1.0;
    ( 1, u43_u32_u23_u11 ) 0.0, 1.0;
    ( 1, u43_u32_u23_u12 ) 0.0, 1.0;
    ( 1, u43_u32_u23_u13 ) 0.0, 1.0;
    ( 1, u43_u32_u23_u14 ) 0.0, 1.0;
    ( 1, u43_u32_u24_u11 ) 0.0, 1.0;
    ( 1, u43_u32_u24_u12 ) 0.0, 1.0;
    ( 1, u43_u32_u24_u13 ) 0.0, 1.0;
    ( 1, u43_u32_u24_u14 ) 0.0, 1.0;
    ( 1, u43_u33_u21_u11 ) 1.0, 0.0;
    ( 1, u43_u33_u21_u12 ) 1.0, 0.0;
    ( 1, u43_u33_u21_u13 ) 1.0, 0.0;
    ( 1, u43_u33_u21_u14 ) 1.0, 0.0;
    ( 1, u43_u33_u22_u11 ) 1.0, 0.0;
    ( 1, u43_u33_u22_u12 ) 1.0, 0.0;
    ( 1, u43_u33_u22_u13 ) 1.0, 0.0;
    ( 1, u43_u33_u22_u14 ) 1.0, 0.0;
    ( 1, u43_u33_u23_u11 ) 1.0, 0.0;
    ( 1, u43_u33_u23_u12 ) 1.0, 0.0;
    ( 1, u43_u33_u23_u13 ) 1.0, 0.0;
    ( 1, u43_u33_u23_u14 ) 1.0, 0.0;
    ( 1, u43_u33_u24_u11 ) 1.0, 0.0;
    ( 1, u43_u33_u24_u12 ) 1.0, 0.0;
    ( 1, u43_u33_u24_u13 ) 1.0, 0.0;
    ( 1, u43_u33_u24_u14 ) 1.0, 0.0;
    ( 1, u43_u34_u21_u11 ) 0.0, 1.0;
    ( 1, u43_u34_u21_u12 ) 0.0, 1.0;
    ( 1, u43_u34_u21_u13 ) 0.0, 1.0;
    ( 1, u43_u34_u21_u14 ) 0.0, 1.0;
    ( 1, u43_u34_u22_u11 ) 0.0, 1.0;
    ( 1, u43_u34_u22_u12 ) 0.0, 1.0;
    ( 1, u43_u34_u22_u13 ) 0.0, 1.0;
    ( 1, u43_u34_u22_u14 ) 0.0, 1.0;
    ( 1, u43_u34_u23_u11 ) 0.0, 1.0;
    ( 1, u43_u34_u23_u12 ) 0.0, 1.0;
    ( 1, u43_u34_u23_u13 ) 0.0, 1.0;
    ( 1, u43_u34_u23_u14 ) 0.0, 1.0;
    ( 1, u43_u34_u24_u11 ) 0.0, 1.0;
    ( 1, u43_u34_u24_u12 ) 0.0, 1.0;
    ( 1, u43_u34_u24_u13 ) 0.0, 1.0;
    ( 1, u43_u34_u24_u14 ) 0.0, 1.0;
    ( 1, u44_u31_u21_u11 ) 1.0, 0.0;
    ( 1, u44_u31_u21_u12 ) 1.0, 0.0;
    ( 1, u44_u31_u21_u13 ) 1.0, 0.0;
    ( 1, u44_u31_u21_u14 ) 1.0, 0.0;
    ( 1, u44_u31_u22_u11 ) 1.0, 0.0;
    ( 1, u44_u31_u22_u12 ) 1.0, 0.0;
    ( 1, u44_u31_u22_u13 ) 1.0, 0.0;
    ( 1, u44_u31_u22_u14 ) 1.0, 0.0;
    ( 1, u44_u31_u23_u11 ) 1.0, 0.0;
    ( 1, u44_u31_u23_u12 ) 1.0, 0.0;
    ( 1, u44_u31_u23_u13 ) 1.0, 0.0;
    ( 1, u44_u31_u23_u14 ) 1.0, 0.0;
    ( 1, u44_u31_u24_u11 ) 1.0, 0.0;
    ( 1, u44_u31_u24_u12 ) 1.0, 0.0;
    ( 1, u44_u31_u24_u13 ) 1.0, 0.0;
    ( 1, u44_u31_u24_u14 ) 1.0, 0.0;
    ( 1, u44_u32_u21_u11 ) 0.0, 1.0;
    ( 1, u44_u32_u21_u12 ) 0.0, 1.0;
    ( 1, u44_u32_u21_u13 ) 0.0, 1.0;
    ( 1, u44_u32_u21_u14 ) 0.0, 1.0;
    ( 1, u44_u32_u22_u11 ) 0.0, 1.0;
    ( 1, u44_u32_u22_u12 ) 0.0, 1.0;
    ( 1, u44_u32_u22_u13 ) 0.0, 1.0;
    ( 1, u44_u32_u22_u14 ) 0.0, 1.0;
    ( 1, u44_u32_u23_u11 ) 0.0, 1.0;
    ( 1, u44_u32_u23_u12 ) 0.0, 1.0;
    ( 1, u44_u32_u23_u13 ) 0.0, 1.0;
    ( 1, u44_u32_u23_u14 ) 0.0, 1.0;
    ( 1, u44_u32_u24_u11 ) 0.0, 1.0;
    ( 1, u44_u32_u24_u12 ) 0.0, 1.0;
    ( 1, u44_u32_u24_u13 ) 0.0, 1.0;
    ( 1, u44_u32_u24_u14 ) 0.0, 1.0;
    ( 1, u44_u33_u21_u11 ) 1.0, 0.0;
    ( 1, u44_u33_u21_u12 ) 1.0, 0.0;
    ( 1, u44_u33_u21_u13 ) 1.0, 0.0;
    ( 1, u44_u33_u21_u14 ) 1.0, 0.0;
    ( 1, u44_u33_u22_u11 ) 1.0, 0.0;
    ( 1, u44_u33_u22_u12 ) 1.0, 0.0;
    ( 1, u44_u33_u22_u13 ) 1.0, 0.0;
    ( 1, u44_u33_u22_u14 ) 1.0, 0.0;
    ( 1, u44_u33_u23_u11 ) 1.0, 0.0;
    ( 1, u44_u33_u23_u12 ) 1.0, 0.0;
    ( 1, u44_u33_u23_u13 ) 1.0, 0.0;
    ( 1, u44_u33_u23_u14 ) 1.0, 0.0;
    ( 1, u44_u33_u24_u11 ) 1.0, 0.0;
    ( 1, u44_u33_u24_u12 ) 1.0, 0.0;
    ( 1, u44_u33_u24_u13 ) 1.0, 0.0;
    ( 1, u44_u33_u24_u14 ) 1.0, 0.0;
    ( 1, u44_u34_u21_u11 ) 0.0, 1.0;
    ( 1, u44_u34_u21_u12 ) 0.0, 1.0;
    ( 1, u44_u34_u21_u13 ) 0.0, 1.0;
    ( 1, u44_u34_u21_u14 ) 0.0, 1.0;
    ( 1, u44_u34_u22_u11 ) 0.0, 1.0;
    ( 1, u44_u34_u22_u12 ) 0.0, 1.0;
    ( 1, u44_u34_u22_u13 ) 0.0, 1.0;
    ( 1, u44_u34_u22_u14 ) 0.0, 1.0;
    ( 1, u44_u34_u23_u11 ) 0.0, 1.0;
    ( 1, u44_u34_u23_u12 ) 0.0, 1.0;
    ( 1, u44_u34_u23_u13 ) 0.0, 1.0;
    ( 1, u44_u34_u23_u14 ) 0.0, 1.0;
    ( 1, u44_u34_u24_u11 ) 0.0, 1.0;
    ( 1, u44_u34_u24_u12 ) 0.0, 1.0;
    ( 1, u44_u34_u24_u13 ) 0.0, 1.0;
    ( 1, u44_u34_u24_u14 ) 0.0, 1.0;

}
probability ( Y4 | Y3, U1U2U3U4 ) {
    ( 0, u41_u31_u21_u11 ) 1.0, 0.0;
    ( 0, u41_u31_u21_u12 ) 1.0, 0.0;
    ( 0, u41_u31_u21_u13 ) 1.0, 0.0;
    ( 0, u41_u31_u21_u14 ) 1.0, 0.0;
    ( 0, u41_u31_u22_u11 ) 1.0, 0.0;
    ( 0, u41_u31_u22_u12 ) 1.0, 0.0;
    ( 0, u41_u31_u22_u13 ) 1.0, 0.0;
    ( 0, u41_u31_u22_u14 ) 1.0, 0.0;
    ( 0, u41_u31_u23_u11 ) 1.0, 0.0;
    ( 0, u41_u31_u23_u12 ) 1.0, 0.0;
    ( 0, u41_u31_u23_u13 ) 1.0, 0.0;
    ( 0, u41_u31_u23_u14 ) 1.0, 0.0;
    ( 0, u41_u31_u24_u11 ) 1.0, 0.0;
    ( 0, u41_u31_u24_u12 ) 1.0, 0.0;
    ( 0, u41_u31_u24_u13 ) 1.0, 0.0;
    ( 0, u41_u31_u24_u14 ) 1.0, 0.0;
    ( 0, u41_u32_u21_u11 ) 1.0, 0.0;
    ( 0, u41_u32_u21_u12 ) 1.0, 0.0;
    ( 0, u41_u32_u21_u13 ) 1.0, 0.0;
    ( 0, u41_u32_u21_u14 ) 1.0, 0.0;
    ( 0, u41_u32_u22_u11 ) 1.0, 0.0;
    ( 0, u41_u32_u22_u12 ) 1.0, 0.0;
    ( 0, u41_u32_u22_u13 ) 1.0, 0.0;
    ( 0, u41_u32_u22_u14 ) 1.0, 0.0;
    ( 0, u41_u32_u23_u11 ) 1.0, 0.0;
    ( 0, u41_u32_u23_u12 ) 1.0, 0.0;
    ( 0, u41_u32_u23_u13 ) 1.0, 0.0;
    ( 0, u41_u32_u23_u14 ) 1.0, 0.0;
    ( 0, u41_u32_u24_u11 ) 1.0, 0.0;
    ( 0, u41_u32_u24_u12 ) 1.0, 0.0;
    ( 0, u41_u32_u24_u13 ) 1.0, 0.0;
    ( 0, u41_u32_u24_u14 ) 1.0, 0.0;
    ( 0, u41_u33_u21_u11 ) 1.0, 0.0;
    ( 0, u41_u33_u21_u12 ) 1.0, 0.0;
    ( 0, u41_u33_u21_u13 ) 1.0, 0.0;
    ( 0, u41_u33_u21_u14 ) 1.0, 0.0;
    ( 0, u41_u33_u22_u11 ) 1.0, 0.0;
    ( 0, u41_u33_u22_u12 ) 1.0, 0.0;
    ( 0, u41_u33_u22_u13 ) 1.0, 0.0;
    ( 0, u41_u33_u22_u14 ) 1.0, 0.0;
    ( 0, u41_u33_u23_u11 ) 1.0, 0.0;
    ( 0, u41_u33_u23_u12 ) 1.0, 0.0;
    ( 0, u41_u33_u23_u13 ) 1.0, 0.0;
    ( 0, u41_u33_u23_u14 ) 1.0, 0.0;
    ( 0, u41_u33_u24_u11 ) 1.0, 0.0;
    ( 0, u41_u33_u24_u12 ) 1.0, 0.0;
    ( 0, u41_u33_u24_u13 ) 1.0, 0.0;
    ( 0, u41_u33_u24_u14 ) 1.0, 0.0;
    ( 0, u41_u34_u21_u11 ) 1.0, 0.0;
    ( 0, u41_u34_u21_u12 ) 1.0, 0.0;
    ( 0, u41_u34_u21_u13 ) 1.0, 0.0;
    ( 0, u41_u34_u21_u14 ) 1.0, 0.0;
    ( 0, u41_u34_u22_u11 ) 1.0, 0.0;
    ( 0, u41_u34_u22_u12 ) 1.0, 0.0;
    ( 0, u41_u34_u22_u13 ) 1.0, 0.0;
    ( 0, u41_u34_u22_u14 ) 1.0, 0.0;
    ( 0, u41_u34_u23_u11 ) 1.0, 0.0;
    ( 0, u41_u34_u23_u12 ) 1.0, 0.0;
    ( 0, u41_u34_u23_u13 ) 1.0, 0.0;
    ( 0, u41_u34_u23_u14 ) 1.0, 0.0;
    ( 0, u41_u34_u24_u11 ) 1.0, 0.0;
    ( 0, u41_u34_u24_u12 ) 1.0, 0.0;
    ( 0, u41_u34_u24_u13 ) 1.0, 0.0;
    ( 0, u41_u34_u24_u14 ) 1.0, 0.0;
    ( 0, u42_u31_u21_u11 ) 1.0, 0.0;
    ( 0, u42_u31_u21_u12 ) 1.0, 0.0;
    ( 0, u42_u31_u21_u13 ) 1.0, 0.0;
    ( 0, u42_u31_u21_u14 ) 1.0, 0.0;
    ( 0, u42_u31_u22_u11 ) 1.0, 0.0;
    ( 0, u42_u31_u22_u12 ) 1.0, 0.0;
    ( 0, u42_u31_u22_u13 ) 1.0, 0.0;
    ( 0, u42_u31_u22_u14 ) 1.0, 0.0;
    ( 0, u42_u31_u23_u11 ) 1.0, 0.0;
    ( 0, u42_u31_u23_u12 ) 1.0, 0.0;
    ( 0, u42_u31_u23_u13 ) 1.0, 0.0;
    ( 0, u42_u31_u23_u14 ) 1.0, 0.0;
    ( 0, u42_u31_u24_u11 ) 1.0, 0.0;
    ( 0, u42_u31_u24_u12 ) 1.0, 0.0;
    ( 0, u42_u31_u24_u13 ) 1.0, 0.0;
    ( 0, u42_u31_u24_u14 ) 1.0, 0.0;
    ( 0, u42_u32_u21_u11 ) 1.0, 0.0;
    ( 0, u42_u32_u21_u12 ) 1.0, 0.0;
    ( 0, u42_u32_u21_u13 ) 1.0, 0.0;
    ( 0, u42_u32_u21_u14 ) 1.0, 0.0;
    ( 0, u42_u32_u22_u11 ) 1.0, 0.0;
    ( 0, u42_u32_u22_u12 ) 1.0, 0.0;
    ( 0, u42_u32_u22_u13 ) 1.0, 0.0;
    ( 0, u42_u32_u22_u14 ) 1.0, 0.0;
    ( 0, u42_u32_u23_u11 ) 1.0, 0.0;
    ( 0, u42_u32_u23_u12 ) 1.0, 0.0;
    ( 0, u42_u32_u23_u13 ) 1.0, 0.0;
    ( 0, u42_u32_u23_u14 ) 1.0, 0.0;
    ( 0, u42_u32_u24_u11 ) 1.0, 0.0;
    ( 0, u42_u32_u24_u12 ) 1.0, 0.0;
    ( 0, u42_u32_u24_u13 ) 1.0, 0.0;
    ( 0, u42_u32_u24_u14 ) 1.0, 0.0;
    ( 0, u42_u33_u21_u11 ) 1.0, 0.0;
    ( 0, u42_u33_u21_u12 ) 1.0, 0.0;
    ( 0, u42_u33_u21_u13 ) 1.0, 0.0;
    ( 0, u42_u33_u21_u14 ) 1.0, 0.0;
    ( 0, u42_u33_u22_u11 ) 1.0, 0.0;
    ( 0, u42_u33_u22_u12 ) 1.0, 0.0;
    ( 0, u42_u33_u22_u13 ) 1.0, 0.0;
    ( 0, u42_u33_u22_u14 ) 1.0, 0.0;
    ( 0, u42_u33_u23_u11 ) 1.0, 0.0;
    ( 0, u42_u33_u23_u12 ) 1.0, 0.0;
    ( 0, u42_u33_u23_u13 ) 1.0, 0.0;
    ( 0, u42_u33_u23_u14 ) 1.0, 0.0;
    ( 0, u42_u33_u24_u11 ) 1.0, 0.0;
    ( 0, u42_u33_u24_u12 ) 1.0, 0.0;
    ( 0, u42_u33_u24_u13 ) 1.0, 0.0;
    ( 0, u42_u33_u24_u14 ) 1.0, 0.0;
    ( 0, u42_u34_u21_u11 ) 1.0, 0.0;
    ( 0, u42_u34_u21_u12 ) 1.0, 0.0;
    ( 0, u42_u34_u21_u13 ) 1.0, 0.0;
    ( 0, u42_u34_u21_u14 ) 1.0, 0.0;
    ( 0, u42_u34_u22_u11 ) 1.0, 0.0;
    ( 0, u42_u34_u22_u12 ) 1.0, 0.0;
    ( 0, u42_u34_u22_u13 ) 1.0, 0.0;
    ( 0, u42_u34_u22_u14 ) 1.0, 0.0;
    ( 0, u42_u34_u23_u11 ) 1.0, 0.0;
    ( 0, u42_u34_u23_u12 ) 1.0, 0.0;
    ( 0, u42_u34_u23_u13 ) 1.0, 0.0;
    ( 0, u42_u34_u23_u14 ) 1.0, 0.0;
    ( 0, u42_u34_u24_u11 ) 1.0, 0.0;
    ( 0, u42_u34_u24_u12 ) 1.0, 0.0;
    ( 0, u42_u34_u24_u13 ) 1.0, 0.0;
    ( 0, u42_u34_u24_u14 ) 1.0, 0.0;
    ( 0, u43_u31_u21_u11 ) 0.0, 1.0;
    ( 0, u43_u31_u21_u12 ) 0.0, 1.0;
    ( 0, u43_u31_u21_u13 ) 0.0, 1.0;
    ( 0, u43_u31_u21_u14 ) 0.0, 1.0;
    ( 0, u43_u31_u22_u11 ) 0.0, 1.0;
    ( 0, u43_u31_u22_u12 ) 0.0, 1.0;
    ( 0, u43_u31_u22_u13 ) 0.0, 1.0;
    ( 0, u43_u31_u22_u14 ) 0.0, 1.0;
    ( 0, u43_u31_u23_u11 ) 0.0, 1.0;
    ( 0, u43_u31_u23_u12 ) 0.0, 1.0;
    ( 0, u43_u31_u23_u13 ) 0.0, 1.0;
    ( 0, u43_u31_u23_u14 ) 0.0, 1.0;
    ( 0, u43_u31_u24_u11 ) 0.0, 1.0;
    ( 0, u43_u31_u24_u12 ) 0.0, 1.0;
    ( 0, u43_u31_u24_u13 ) 0.0, 1.0;
    ( 0, u43_u31_u24_u14 ) 0.0, 1.0;
    ( 0, u43_u32_u21_u11 ) 0.0, 1.0;
    ( 0, u43_u32_u21_u12 ) 0.0, 1.0;
    ( 0, u43_u32_u21_u13 ) 0.0, 1.0;
    ( 0, u43_u32_u21_u14 ) 0.0, 1.0;
    ( 0, u43_u32_u22_u11 ) 0.0, 1.0;
    ( 0, u43_u32_u22_u12 ) 0.0, 1.0;
    ( 0, u43_u32_u22_u13 ) 0.0, 1.0;
    ( 0, u43_u32_u22_u14 ) 0.0, 1.0;
    ( 0, u43_u32_u23_u11 ) 0.0, 1.0;
    ( 0, u43_u32_u23_u12 ) 0.0, 1.0;
    ( 0, u43_u32_u23_u13 ) 0.0, 1.0;
    ( 0, u43_u32_u23_u14 ) 0.0, 1.0;
    ( 0, u43_u32_u24_u11 ) 0.0, 1.0;
    ( 0, u43_u32_u24_u12 ) 0.0, 1.0;
    ( 0, u43_u32_u24_u13 ) 0.0, 1.0;
    ( 0, u43_u32_u24_u14 ) 0.0, 1.0;
    ( 0, u43_u33_u21_u11 ) 0.0, 1.0;
    ( 0, u43_u33_u21_u12 ) 0.0, 1.0;
    ( 0, u43_u33_u21_u13 ) 0.0, 1.0;
    ( 0, u43_u33_u21_u14 ) 0.0, 1.0;
    ( 0, u43_u33_u22_u11 ) 0.0, 1.0;
    ( 0, u43_u33_u22_u12 ) 0.0, 1.0;
    ( 0, u43_u33_u22_u13 ) 0.0, 1.0;
    ( 0, u43_u33_u22_u14 ) 0.0, 1.0;
    ( 0, u43_u33_u23_u11 ) 0.0, 1.0;
    ( 0, u43_u33_u23_u12 ) 0.0, 1.0;
    ( 0, u43_u33_u23_u13 ) 0.0, 1.0;
    ( 0, u43_u33_u23_u14 ) 0.0, 1.0;
    ( 0, u43_u33_u24_u11 ) 0.0, 1.0;
    ( 0, u43_u33_u24_u12 ) 0.0, 1.0;
    ( 0, u43_u33_u24_u13 ) 0.0, 1.0;
    ( 0, u43_u33_u24_u14 ) 0.0, 1.0;
    ( 0, u43_u34_u21_u11 ) 0.0, 1.0;
    ( 0, u43_u34_u21_u12 ) 0.0, 1.0;
    ( 0, u43_u34_u21_u13 ) 0.0, 1.0;
    ( 0, u43_u34_u21_u14 ) 0.0, 1.0;
    ( 0, u43_u34_u22_u11 ) 0.0, 1.0;
    ( 0, u43_u34_u22_u12 ) 0.0, 1.0;
    ( 0, u43_u34_u22_u13 ) 0.0, 1.0;
    ( 0, u43_u34_u22_u14 ) 0.0, 1.0;
    ( 0, u43_u34_u23_u11 ) 0.0, 1.0;
    ( 0, u43_u34_u23_u12 ) 0.0, 1.0;
    ( 0, u43_u34_u23_u13 ) 0.0, 1.0;
    ( 0, u43_u34_u23_u14 ) 0.0, 1.0;
    ( 0, u43_u34_u24_u11 ) 0.0, 1.0;
    ( 0, u43_u34_u24_u12 ) 0.0, 1.0;
    ( 0, u43_u34_u24_u13 ) 0.0, 1.0;
    ( 0, u43_u34_u24_u14 ) 0.0, 1.0;
    ( 0, u44_u31_u21_u11 ) 0.0, 1.0;
    ( 0, u44_u31_u21_u12 ) 0.0, 1.0;
    ( 0, u44_u31_u21_u13 ) 0.0, 1.0;
    ( 0, u44_u31_u21_u14 ) 0.0, 1.0;
    ( 0, u44_u31_u22_u11 ) 0.0, 1.0;
    ( 0, u44_u31_u22_u12 ) 0.0, 1.0;
    ( 0, u44_u31_u22_u13 ) 0.0, 1.0;
    ( 0, u44_u31_u22_u14 ) 0.0, 1.0;
    ( 0, u44_u31_u23_u11 ) 0.0, 1.0;
    ( 0, u44_u31_u23_u12 ) 0.0, 1.0;
    ( 0, u44_u31_u23_u13 ) 0.0, 1.0;
    ( 0, u44_u31_u23_u14 ) 0.0, 1.0;
    ( 0, u44_u31_u24_u11 ) 0.0, 1.0;
    ( 0, u44_u31_u24_u12 ) 0.0, 1.0;
    ( 0, u44_u31_u24_u13 ) 0.0, 1.0;
    ( 0, u44_u31_u24_u14 ) 0.0, 1.0;
    ( 0, u44_u32_u21_u11 ) 0.0, 1.0;
    ( 0, u44_u32_u21_u12 ) 0.0, 1.0;
    ( 0, u44_u32_u21_u13 ) 0.0, 1.0;
    ( 0, u44_u32_u21_u14 ) 0.0, 1.0;
    ( 0, u44_u32_u22_u11 ) 0.0, 1.0;
    ( 0, u44_u32_u22_u12 ) 0.0, 1.0;
    ( 0, u44_u32_u22_u13 ) 0.0, 1.0;
    ( 0, u44_u32_u22_u14 ) 0.0, 1.0;
    ( 0, u44_u32_u23_u11 ) 0.0, 1.0;
    ( 0, u44_u32_u23_u12 ) 0.0, 1.0;
    ( 0, u44_u32_u23_u13 ) 0.0, 1.0;
    ( 0, u44_u32_u23_u14 ) 0.0, 1.0;
    ( 0, u44_u32_u24_u11 ) 0.0, 1.0;
    ( 0, u44_u32_u24_u12 ) 0.0, 1.0;
    ( 0, u44_u32_u24_u13 ) 0.0, 1.0;
    ( 0, u44_u32_u24_u14 ) 0.0, 1.0;
    ( 0, u44_u33_u21_u11 ) 0.0, 1.0;
    ( 0, u44_u33_u21_u12 ) 0.0, 1.0;
    ( 0, u44_u33_u21_u13 ) 0.0, 1.0;
    ( 0, u44_u33_u21_u14 ) 0.0, 1.0;
    ( 0, u44_u33_u22_u11 ) 0.0, 1.0;
    ( 0, u44_u33_u22_u12 ) 0.0, 1.0;
    ( 0, u44_u33_u22_u13 ) 0.0, 1.0;
    ( 0, u44_u33_u22_u14 ) 0.0, 1.0;
    ( 0, u44_u33_u23_u11 ) 0.0, 1.0;
    ( 0, u44_u33_u23_u12 ) 0.0, 1.0;
    ( 0, u44_u33_u23_u13 ) 0.0, 1.0;
    ( 0, u44_u33_u23_u14 ) 0.0, 1.0;
    ( 0, u44_u33_u24_u11 ) 0.0, 1.0;
    ( 0, u44_u33_u24_u12 ) 0.0, 1.0;
    ( 0, u44_u33_u24_u13 ) 0.0, 1.0;
    ( 0, u44_u33_u24_u14 ) 0.0, 1.0;
    ( 0, u44_u34_u21_u11 ) 0.0, 1.0;
    ( 0, u44_u34_u21_u12 ) 0.0, 1.0;
    ( 0, u44_u34_u21_u13 ) 0.0, 1.0;
    ( 0, u44_u34_u21_u14 ) 0.0, 1.0;
    ( 0, u44_u34_u22_u11 ) 0.0, 1.0;
    ( 0, u44_u34_u22_u12 ) 0.0, 1.0;
    ( 0, u44_u34_u22_u13 ) 0.0, 1.0;
    ( 0, u44_u34_u22_u14 ) 0.0, 1.0;
    ( 0, u44_u34_u23_u11 ) 0.0, 1.0;
    ( 0, u44_u34_u23_u12 ) 0.0, 1.0;
    ( 0, u44_u34_u23_u13 ) 0.0, 1.0;
    ( 0, u44_u34_u23_u14 ) 0.0, 1.0;
    ( 0, u44_u34_u24_u11 ) 0.0, 1.0;
    ( 0, u44_u34_u24_u12 ) 0.0, 1.0;
    ( 0, u44_u34_u24_u13 ) 0.0, 1.0;
    ( 0, u44_u34_u24_u14 ) 0.0, 1.0;
    ( 1, u41_u31_u21_u11 ) 1.0, 0.0;
    ( 1, u41_u31_u21_u12 ) 1.0, 0.0;
    ( 1, u41_u31_u21_u13 ) 1.0, 0.0;
    ( 1, u41_u31_u21_u14 ) 1.0, 0.0;
    ( 1, u41_u31_u22_u11 ) 1.0, 0.0;
    ( 1, u41_u31_u22_u12 ) 1.0, 0.0;
    ( 1, u41_u31_u22_u13 ) 1.0, 0.0;
    ( 1, u41_u31_u22_u14 ) 1.0, 0.0;
    ( 1, u41_u31_u23_u11 ) 1.0, 0.0;
    ( 1, u41_u31_u23_u12 ) 1.0, 0.0;
    ( 1, u41_u31_u23_u13 ) 1.0, 0.0;
    ( 1, u41_u31_u23_u14 ) 1.0, 0.0;
    ( 1, u41_u31_u24_u11 ) 1.0, 0.0;
    ( 1, u41_u31_u24_u12 ) 1.0, 0.0;
    ( 1, u41_u31_u24_u13 ) 1.0, 0.0;
    ( 1, u41_u31_u24_u14 ) 1.0, 0.0;
    ( 1, u41_u32_u21_u11 ) 1.0, 0.0;
    ( 1, u41_u32_u21_u12 ) 1.0, 0.0;
    ( 1, u41_u32_u21_u13 ) 1.0, 0.0;
    ( 1, u41_u32_u21_u14 ) 1.0, 0.0;
    ( 1, u41_u32_u22_u11 ) 1.0, 0.0;
    ( 1, u41_u32_u22_u12 ) 1.0, 0.0;
    ( 1, u41_u32_u22_u13 ) 1.0, 0.0;
    ( 1, u41_u32_u22_u14 ) 1.0, 0.0;
    ( 1, u41_u32_u23_u11 ) 1.0, 0.0;
    ( 1, u41_u32_u23_u12 ) 1.0, 0.0;
    ( 1, u41_u32_u23_u13 ) 1.0, 0.0;
    ( 1, u41_u32_u23_u14 ) 1.0, 0.0;
    ( 1, u41_u32_u24_u11 ) 1.0, 0.0;
    ( 1, u41_u32_u24_u12 ) 1.0, 0.0;
    ( 1, u41_u32_u24_u13 ) 1.0, 0.0;
    ( 1, u41_u32_u24_u14 ) 1.0, 0.0;
    ( 1, u41_u33_u21_u11 ) 1.0, 0.0;
    ( 1, u41_u33_u21_u12 ) 1.0, 0.0;
    ( 1, u41_u33_u21_u13 ) 1.0, 0.0;
    ( 1, u41_u33_u21_u14 ) 1.0, 0.0;
    ( 1, u41_u33_u22_u11 ) 1.0, 0.0;
    ( 1, u41_u33_u22_u12 ) 1.0, 0.0;
    ( 1, u41_u33_u22_u13 ) 1.0, 0.0;
    ( 1, u41_u33_u22_u14 ) 1.0, 0.0;
    ( 1, u41_u33_u23_u11 ) 1.0, 0.0;
    ( 1, u41_u33_u23_u12 ) 1.0, 0.0;
    ( 1, u41_u33_u23_u13 ) 1.0, 0.0;
    ( 1, u41_u33_u23_u14 ) 1.0, 0.0;
    ( 1, u41_u33_u24_u11 ) 1.0, 0.0;
    ( 1, u41_u33_u24_u12 ) 1.0, 0.0;
    ( 1, u41_u33_u24_u13 ) 1.0, 0.0;
    ( 1, u41_u33_u24_u14 ) 1.0, 0.0;
    ( 1, u41_u34_u21_u11 ) 1.0, 0.0;
    ( 1, u41_u34_u21_u12 ) 1.0, 0.0;
    ( 1, u41_u34_u21_u13 ) 1.0, 0.0;
    ( 1, u41_u34_u21_u14 ) 1.0, 0.0;
    ( 1, u41_u34_u22_u11 ) 1.0, 0.0;
    ( 1, u41_u34_u22_u12 ) 1.0, 0.0;
    ( 1, u41_u34_u22_u13 ) 1.0, 0.0;
    ( 1, u41_u34_u22_u14 ) 1.0, 0.0;
    ( 1, u41_u34_u23_u11 ) 1.0, 0.0;
    ( 1, u41_u34_u23_u12 ) 1.0, 0.0;
    ( 1, u41_u34_u23_u13 ) 1.0, 0.0;
    ( 1, u41_u34_u23_u14 ) 1.0, 0.0;
    ( 1, u41_u34_u24_u11 ) 1.0, 0.0;
    ( 1, u41_u34_u24_u12 ) 1.0, 0.0;
    ( 1, u41_u34_u24_u13 ) 1.0, 0.0;
    ( 1, u41_u34_u24_u14 ) 1.0, 0.0;
    ( 1, u42_u31_u21_u11 ) 0.0, 1.0;
    ( 1, u42_u31_u21_u12 ) 0.0, 1.0;
    ( 1, u42_u31_u21_u13 ) 0.0, 1.0;
    ( 1, u42_u31_u21_u14 ) 0.0, 1.0;
    ( 1, u42_u31_u22_u11 ) 0.0, 1.0;
    ( 1, u42_u31_u22_u12 ) 0.0, 1.0;
    ( 1, u42_u31_u22_u13 ) 0.0, 1.0;
    ( 1, u42_u31_u22_u14 ) 0.0, 1.0;
    ( 1, u42_u31_u23_u11 ) 0.0, 1.0;
    ( 1, u42_u31_u23_u12 ) 0.0, 1.0;
    ( 1, u42_u31_u23_u13 ) 0.0, 1.0;
    ( 1, u42_u31_u23_u14 ) 0.0, 1.0;
    ( 1, u42_u31_u24_u11 ) 0.0, 1.0;
    ( 1, u42_u31_u24_u12 ) 0.0, 1.0;
    ( 1, u42_u31_u24_u13 ) 0.0, 1.0;
    ( 1, u42_u31_u24_u14 ) 0.0, 1.0;
    ( 1, u42_u32_u21_u11 ) 0.0, 1.0;
    ( 1, u42_u32_u21_u12 ) 0.0, 1.0;
    ( 1, u42_u32_u21_u13 ) 0.0, 1.0;
    ( 1, u42_u32_u21_u14 ) 0.0, 1.0;
    ( 1, u42_u32_u22_u11 ) 0.0, 1.0;
    ( 1, u42_u32_u22_u12 ) 0.0, 1.0;
    ( 1, u42_u32_u22_u13 ) 0.0, 1.0;
    ( 1, u42_u32_u22_u14 ) 0.0, 1.0;
    ( 1, u42_u32_u23_u11 ) 0.0, 1.0;
    ( 1, u42_u32_u23_u12 ) 0.0, 1.0;
    ( 1, u42_u32_u23_u13 ) 0.0, 1.0;
    ( 1, u42_u32_u23_u14 ) 0.0, 1.0;
    ( 1, u42_u32_u24_u11 ) 0.0, 1.0;
    ( 1, u42_u32_u24_u12 ) 0.0, 1.0;
    ( 1, u42_u32_u24_u13 ) 0.0, 1.0;
    ( 1, u42_u32_u24_u14 ) 0.0, 1.0;
    ( 1, u42_u33_u21_u11 ) 0.0, 1.0;
    ( 1, u42_u33_u21_u12 ) 0.0, 1.0;
    ( 1, u42_u33_u21_u13 ) 0.0, 1.0;
    ( 1, u42_u33_u21_u14 ) 0.0, 1.0;
    ( 1, u42_u33_u22_u11 ) 0.0, 1.0;
    ( 1, u42_u33_u22_u12 ) 0.0, 1.0;
    ( 1, u42_u33_u22_u13 ) 0.0, 1.0;
    ( 1, u42_u33_u22_u14 ) 0.0, 1.0;
    ( 1, u42_u33_u23_u11 ) 0.0, 1.0;
    ( 1, u42_u33_u23_u12 ) 0.0, 1.0;
    ( 1, u42_u33_u23_u13 ) 0.0, 1.0;
    ( 1, u42_u33_u23_u14 ) 0.0, 1.0;
    ( 1, u42_u33_u24_u11 ) 0.0, 1.0;
    ( 1, u42_u33_u24_u12 ) 0.0, 1.0;
    ( 1, u42_u33_u24_u13 ) 0.0, 1.0;
    ( 1, u42_u33_u24_u14 ) 0.0, 1.0;
    ( 1, u42_u34_u21_u11 ) 0.0, 1.0;
    ( 1, u42_u34_u21_u12 ) 0.0, 1.0;
    ( 1, u42_u34_u21_u13 ) 0.0, 1.0;
    ( 1, u42_u34_u21_u14 ) 0.0, 1.0;
    ( 1, u42_u34_u22_u11 ) 0.0, 1.0;
    ( 1, u42_u34_u22_u12 ) 0.0, 1.0;
    ( 1, u42_u34_u22_u13 ) 0.0, 1.0;
    ( 1, u42_u34_u22_u14 ) 0.0, 1.0;
    ( 1, u42_u34_u23_u11 ) 0.0, 1.0;
    ( 1, u42_u34_u23_u12 ) 0.0, 1.0;
    ( 1, u42_u34_u23_u13 ) 0.0, 1.0;
    ( 1, u42_u34_u23_u14 ) 0.0, 1.0;
    ( 1, u42_u34_u24_u11 ) 0.0, 1.0;
    ( 1, u42_u34_u24_u12 ) 0.0, 1.0;
    ( 1, u42_u34_u24_u13 ) 0.0, 1.0;
    ( 1, u42_u34_u24_u14 ) 0.0, 1.0;
    ( 1, u43_u31_u21_u11 ) 1.0, 0.0;
    ( 1, u43_u31_u21_u12 ) 1.0, 0.0;
    ( 1, u43_u31_u21_u13 ) 1.0, 0.0;
    ( 1, u43_u31_u21_u14 ) 1.0, 0.0;
    ( 1, u43_u31_u22_u11 ) 1.0, 0.0;
    ( 1, u43_u31_u22_u12 ) 1.0, 0.0;
    ( 1, u43_u31_u22_u13 ) 1.0, 0.0;
    ( 1, u43_u31_u22_u14 ) 1.0, 0.0;
    ( 1, u43_u31_u23_u11 ) 1.0, 0.0;
    ( 1, u43_u31_u23_u12 ) 1.0, 0.0;
    ( 1, u43_u31_u23_u13 ) 1.0, 0.0;
    ( 1, u43_u31_u23_u14 ) 1.0, 0.0;
    ( 1, u43_u31_u24_u11 ) 1.0, 0.0;
    ( 1, u43_u31_u24_u12 ) 1.0, 0.0;
    ( 1, u43_u31_u24_u13 ) 1.0, 0.0;
    ( 1, u43_u31_u24_u14 ) 1.0, 0.0;
    ( 1, u43_u32_u21_u11 ) 1.0, 0.0;
    ( 1, u43_u32_u21_u12 ) 1.0, 0.0;
    ( 1, u43_u32_u21_u13 ) 1.0, 0.0;
    ( 1, u43_u32_u21_u14 ) 1.0, 0.0;
    ( 1, u43_u32_u22_u11 ) 1.0, 0.0;
    ( 1, u43_u32_u22_u12 ) 1.0, 0.0;
    ( 1, u43_u32_u22_u13 ) 1.0, 0.0;
    ( 1, u43_u32_u22_u14 ) 1.0, 0.0;
    ( 1, u43_u32_u23_u11 ) 1.0, 0.0;
    ( 1, u43_u32_u23_u12 ) 1.0, 0.0;
    ( 1, u43_u32_u23_u13 ) 1.0, 0.0;
    ( 1, u43_u32_u23_u14 ) 1.0, 0.0;
    ( 1, u43_u32_u24_u11 ) 1.0, 0.0;
    ( 1, u43_u32_u24_u12 ) 1.0, 0.0;
    ( 1, u43_u32_u24_u13 ) 1.0, 0.0;
    ( 1, u43_u32_u24_u14 ) 1.0, 0.0;
    ( 1, u43_u33_u21_u11 ) 1.0, 0.0;
    ( 1, u43_u33_u21_u12 ) 1.0, 0.0;
    ( 1, u43_u33_u21_u13 ) 1.0, 0.0;
    ( 1, u43_u33_u21_u14 ) 1.0, 0.0;
    ( 1, u43_u33_u22_u11 ) 1.0, 0.0;
    ( 1, u43_u33_u22_u12 ) 1.0, 0.0;
    ( 1, u43_u33_u22_u13 ) 1.0, 0.0;
    ( 1, u43_u33_u22_u14 ) 1.0, 0.0;
    ( 1, u43_u33_u23_u11 ) 1.0, 0.0;
    ( 1, u43_u33_u23_u12 ) 1.0, 0.0;
    ( 1, u43_u33_u23_u13 ) 1.0, 0.0;
    ( 1, u43_u33_u23_u14 ) 1.0, 0.0;
    ( 1, u43_u33_u24_u11 ) 1.0, 0.0;
    ( 1, u43_u33_u24_u12 ) 1.0, 0.0;
    ( 1, u43_u33_u24_u13 ) 1.0, 0.0;
    ( 1, u43_u33_u24_u14 ) 1.0, 0.0;
    ( 1, u43_u34_u21_u11 ) 1.0, 0.0;
    ( 1, u43_u34_u21_u12 ) 1.0, 0.0;
    ( 1, u43_u34_u21_u13 ) 1.0, 0.0;
    ( 1, u43_u34_u21_u14 ) 1.0, 0.0;
    ( 1, u43_u34_u22_u11 ) 1.0, 0.0;
    ( 1, u43_u34_u22_u12 ) 1.0, 0.0;
    ( 1, u43_u34_u22_u13 ) 1.0, 0.0;
    ( 1, u43_u34_u22_u14 ) 1.0, 0.0;
    ( 1, u43_u34_u23_u11 ) 1.0, 0.0;
    ( 1, u43_u34_u23_u12 ) 1.0, 0.0;
    ( 1, u43_u34_u23_u13 ) 1.0, 0.0;
    ( 1, u43_u34_u23_u14 ) 1.0, 0.0;
    ( 1, u43_u34_u24_u11 ) 1.0, 0.0;
    ( 1, u43_u34_u24_u12 ) 1.0, 0.0;
    ( 1, u43_u34_u24_u13 ) 1.0, 0.0;
    ( 1, u43_u34_u24_u14 ) 1.0, 0.0;
    ( 1, u44_u31_u21_u11 ) 0.0, 1.0;
    ( 1, u44_u31_u21_u12 ) 0.0, 1.0;
    ( 1, u44_u31_u21_u13 ) 0.0, 1.0;
    ( 1, u44_u31_u21_u14 ) 0.0, 1.0;
    ( 1, u44_u31_u22_u11 ) 0.0, 1.0;
    ( 1, u44_u31_u22_u12 ) 0.0, 1.0;
    ( 1, u44_u31_u22_u13 ) 0.0, 1.0;
    ( 1, u44_u31_u22_u14 ) 0.0, 1.0;
    ( 1, u44_u31_u23_u11 ) 0.0, 1.0;
    ( 1, u44_u31_u23_u12 ) 0.0, 1.0;
    ( 1, u44_u31_u23_u13 ) 0.0, 1.0;
    ( 1, u44_u31_u23_u14 ) 0.0, 1.0;
    ( 1, u44_u31_u24_u11 ) 0.0, 1.0;
    ( 1, u44_u31_u24_u12 ) 0.0, 1.0;
    ( 1, u44_u31_u24_u13 ) 0.0, 1.0;
    ( 1, u44_u31_u24_u14 ) 0.0, 1.0;
    ( 1, u44_u32_u21_u11 ) 0.0, 1.0;
    ( 1, u44_u32_u21_u12 ) 0.0, 1.0;
    ( 1, u44_u32_u21_u13 ) 0.0, 1.0;
    ( 1, u44_u32_u21_u14 ) 0.0, 1.0;
    ( 1, u44_u32_u22_u11 ) 0.0, 1.0;
    ( 1, u44_u32_u22_u12 ) 0.0, 1.0;
    ( 1, u44_u32_u22_u13 ) 0.0, 1.0;
    ( 1, u44_u32_u22_u14 ) 0.0, 1.0;
    ( 1, u44_u32_u23_u11 ) 0.0, 1.0;
    ( 1, u44_u32_u23_u12 ) 0.0, 1.0;
    ( 1, u44_u32_u23_u13 ) 0.0, 1.0;
    ( 1, u44_u32_u23_u14 ) 0.0, 1.0;
    ( 1, u44_u32_u24_u11 ) 0.0, 1.0;
    ( 1, u44_u32_u24_u12 ) 0.0, 1.0;
    ( 1, u44_u32_u24_u13 ) 0.0, 1.0;
    ( 1, u44_u32_u24_u14 ) 0.0, 1.0;
    ( 1, u44_u33_u21_u11 ) 0.0, 1.0;
    ( 1, u44_u33_u21_u12 ) 0.0, 1.0;
    ( 1, u44_u33_u21_u13 ) 0.0, 1.0;
    ( 1, u44_u33_u21_u14 ) 0.0, 1.0;
    ( 1, u44_u33_u22_u11 ) 0.0, 1.0;
    ( 1, u44_u33_u22_u12 ) 0.0, 1.0;
    ( 1, u44_u33_u22_u13 ) 0.0, 1.0;
    ( 1, u44_u33_u22_u14 ) 0.0, 1.0;
    ( 1, u44_u33_u23_u11 ) 0.0, 1.0;
    ( 1, u44_u33_u23_u12 ) 0.0, 1.0;
    ( 1, u44_u33_u23_u13 ) 0.0, 1.0;
    ( 1, u44_u33_u23_u14 ) 0.0, 1.0;
    ( 1, u44_u33_u24_u11 ) 0.0, 1.0;
    ( 1, u44_u33_u24_u12 ) 0.0, 1.0;
    ( 1, u44_u33_u24_u13 ) 0.0, 1.0;
    ( 1, u44_u33_u24_u14 ) 0.0, 1.0;
    ( 1, u44_u34_u21_u11 ) 0.0, 1.0;
    ( 1, u44_u34_u21_u12 ) 0.0, 1.0;
    ( 1, u44_u34_u21_u13 ) 0.0, 1.0;
    ( 1, u44_u34_u21_u14 ) 0.0, 1.0;
    ( 1, u44_u34_u22_u11 ) 0.0, 1.0;
    ( 1, u44_u34_u22_u12 ) 0.0, 1.0;
    ( 1, u44_u34_u22_u13 ) 0.0, 1.0;
    ( 1, u44_u34_u22_u14 ) 0.0, 1.0;
    ( 1, u44_u34_u23_u11 ) 0.0, 1.0;
    ( 1, u44_u34_u23_u12 ) 0.0, 1.0;
    ( 1, u44_u34_u23_u13 ) 0.0, 1.0;
    ( 1, u44_u34_u23_u14 ) 0.0, 1.0;
    ( 1, u44_u34_u24_u11 ) 0.0, 1.0;
    ( 1, u44_u34_u24_u12 ) 0.0, 1.0;
    ( 1, u44_u34_u24_u13 ) 0.0, 1.0;
    ( 1, u44_u34_u24_u14 ) 0.0, 1.0;

}
